{"learner":{"attributes":{"scikit_learn":"{\"_estimator_type\": \"regressor\"}"},"feature_names":["LL","FC","CEM_I","CEM_II","CEM_III","ρnorm","ωnorm","C","nCiv","T"],"feature_types":["float","float","float","float","float","float","float","int","float","int"],"gradient_booster":{"model":{"gbtree_model_param":{"num_parallel_tree":"1","num_trees":"150"},"iteration_indptr":[0,1,2,3,4,5,6,7,8,9,10,11,12,13,14,15,16,17,18,19,20,21,22,23,24,25,26,27,28,29,30,31,32,33,34,35,36,37,38,39,40,41,42,43,44,45,46,47,48,49,50,51,52,53,54,55,56,57,58,59,60,61,62,63,64,65,66,67,68,69,70,71,72,73,74,75,76,77,78,79,80,81,82,83,84,85,86,87,88,89,90,91,92,93,94,95,96,97,98,99,100,101,102,103,104,105,106,107,108,109,110,111,112,113,114,115,116,117,118,119,120,121,122,123,124,125,126,127,128,129,130,131,132,133,134,135,136,137,138,139,140,141,142,143,144,145,146,147,148,149,150],"tree_info":[0,0,0,0,0,0,0,0,0,0,0,0,0,0,0,0,0,0,0,0,0,0,0,0,0,0,0,0,0,0,0,0,0,0,0,0,0,0,0,0,0,0,0,0,0,0,0,0,0,0,0,0,0,0,0,0,0,0,0,0,0,0,0,0,0,0,0,0,0,0,0,0,0,0,0,0,0,0,0,0,0,0,0,0,0,0,0,0,0,0,0,0,0,0,0,0,0,0,0,0,0,0,0,0,0,0,0,0,0,0,0,0,0,0,0,0,0,0,0,0,0,0,0,0,0,0,0,0,0,0,0,0,0,0,0,0,0,0,0,0,0,0,0,0,0,0,0,0,0,0],"trees":[{"base_weights":[-5.9854748E1,1.3058718E3,-6.455541E2,4.8467178E2,7.813678E2,-2.671271E2,-5.6743854E2,3.558547E2,3.555748E2,-2.601461E2,-8.803713E2,8.979384E0,1.2493272E2,3.749713E1,-4.344449E2,-1.5257115E2,-2.1586685E2,-5.8748013E1,-1.5258864E2],"categories":[],"categories_nodes":[],"categories_segments":[],"categories_sizes":[],"default_left":[0,0,0,0,0,0,0,0,0,0,0,0,0,0,0,0,0,0,0],"id":0,"left_children":[1,3,5,-1,7,-1,9,-1,11,13,15,-1,-1,-1,17,-1,-1,-1,-1],"loss_changes":[1.2417115E8,2.617736E7,5.399468E6,0E0,1.347218E7,0E0,9.344146E6,0E0,1.956131E6,3.9967678E6,6.42304E5,0E0,0E0,0E0,1.5572345E6,0E0,0E0,0E0,0E0],"parents":[2147483647,0,0,1,1,2,2,4,4,6,6,8,8,9,9,10,10,14,14],"right_children":[2,4,6,-1,8,-1,10,-1,12,14,16,-1,-1,-1,18,-1,-1,-1,-1],"split_conditions":[1.1466E1,1E0,7.638889E-1,4.8467178E2,8.032423E0,-2.671271E2,2.2122E1,3.558547E2,1.0229E1,4E0,2.756E1,8.979384E0,1.2493272E2,3.749713E1,1.4483E1,-1.5257115E2,-2.1586685E2,-5.8748013E1,-1.5258864E2],"split_indices":[8,6,6,0,8,0,8,0,8,7,8,0,0,0,8,0,0,0,0],"split_type":[0,0,0,0,0,0,0,0,0,0,0,0,0,0,0,0,0,0,0],"sum_hessian":[1.54E2,4.6E1,1.08E2,1.4E1,3.2E1,1E1,9.8E1,9E0,2.3E1,5E1,4.8E1,1.1E1,1.2E1,1.4E1,3.6E1,3.2E1,1.6E1,2.6E1,1E1],"tree_param":{"num_deleted":"0","num_feature":"10","num_nodes":"19","size_leaf_vector":"1"}},{"base_weights":[2.5457031E1,1.3707963E3,-5.148014E2,4.251162E2,7.902699E2,-3.4045767E2,-7.2583734E2,2.1721104E2,7.542249E1,-2.051774E2,-2.0926212E2,-1.278762E2,-1.7387802E2,-2.1690724E0,-2.80731E2,4.6359415E0,-5.4693217E0,-2.3502401E1,-7.967394E1],"categories":[],"categories_nodes":[],"categories_segments":[],"categories_sizes":[],"default_left":[0,0,0,0,0,0,0,0,0,0,0,0,0,0,0,0,0,0,0],"id":1,"left_children":[1,3,5,-1,7,9,11,-1,-1,13,-1,-1,-1,15,17,-1,-1,-1,-1],"loss_changes":[1.1061097E8,1.8096448E7,3.847428E6,0E0,2.882729E6,5.6577625E6,2.69654E5,0E0,0E0,7.91076E5,0E0,0E0,0E0,9.698341E3,6.9386475E5,0E0,0E0,0E0,0E0],"parents":[2147483647,0,0,1,1,2,2,4,4,5,5,6,6,9,9,13,13,14,14],"right_children":[2,4,6,-1,8,10,12,-1,-1,14,-1,-1,-1,16,18,-1,-1,-1,-1],"split_conditions":[1.1466E1,8.032423E0,2.2122E1,4.251162E2,6.5E1,1E0,2.756E1,2.1721104E2,7.542249E1,4E0,-2.0926212E2,-1.278762E2,-1.7387802E2,4.36E1,1.2608E1,4.6359415E0,-5.4693217E0,-2.3502401E1,-7.967394E1],"split_indices":[8,8,8,0,1,2,8,0,0,7,0,0,0,0,8,0,0,0,0],"split_type":[0,0,0,0,0,0,0,0,0,0,0,0,0,0,0,0,0,0,0],"sum_hessian":[1.51E2,4.3E1,1.08E2,1.8E1,2.5E1,6E1,4.8E1,1.4E1,1.1E1,5.1E1,9E0,3.2E1,1.6E1,1.4E1,3.7E1,7E0,7E0,1.6E1,2.1E1],"tree_param":{"num_deleted":"0","num_feature":"10","num_nodes":"19","size_leaf_vector":"1"}},{"base_weights":[5.5194576E1,9.1787885E2,-3.8299667E2,2.671695E2,1.4810758E3,-5.4554193E2,1.6551929E2,1.5433871E2,1.1532614E1,3.984938E2,1.0393771E3,-2.0286478E2,-4.3082236E2,9.531045E1,-4.1540276E1,-4.9879753E1,6.040005E1,1.573253E2,2.55317E2,-3.6726254E2,-1.6677174E2,-3.8918053E1,-1.1705745E2],"categories":[],"categories_nodes":[],"categories_segments":[],"categories_sizes":[],"default_left":[0,0,0,0,0,0,0,0,0,0,0,0,0,0,0,0,0,0,0,0,0,0,0],"id":2,"left_children":[1,3,5,7,9,11,13,-1,15,-1,17,-1,19,-1,-1,-1,-1,-1,-1,21,-1,-1,-1],"loss_changes":[6.0165012E7,1.9405772E7,9.469337E6,3.296419E6,5.217664E6,4.126124E6,2.9150525E6,0E0,1.3791324E6,0E0,3.92726E5,0E0,1.522338E6,0E0,0E0,0E0,0E0,0E0,0E0,2.1377685E6,0E0,0E0,0E0],"parents":[2147483647,0,0,1,1,2,2,3,3,4,4,5,5,6,6,8,8,10,10,12,12,19,19],"right_children":[2,4,6,8,10,12,14,-1,16,-1,18,-1,20,-1,-1,-1,-1,-1,-1,22,-1,-1,-1],"split_conditions":[1.1466E1,1.4E1,6E1,1E0,8.032423E0,3E0,2.1767E1,1.5433871E2,7E0,3.984938E2,1.008888E1,-2.0286478E2,1E0,9.531045E1,-4.1540276E1,-4.9879753E1,6.040005E1,1.573253E2,2.55317E2,2.3212E1,-1.6677174E2,-3.8918053E1,-1.1705745E2],"split_indices":[8,9,9,6,8,9,8,0,9,0,8,0,2,0,0,0,0,0,0,8,0,0,0],"split_type":[0,0,0,0,0,0,0,0,0,0,0,0,0,0,0,0,0,0,0,0,0,0,0],"sum_hessian":[1.58E2,5.3E1,1.05E2,2.5E1,2.8E1,8.1E1,2.4E1,8E0,1.7E1,1.2E1,1.6E1,1.5E1,6.6E1,1.3E1,1.1E1,9E0,8E0,9E0,7E0,5.8E1,8E0,3.3E1,2.5E1],"tree_param":{"num_deleted":"0","num_feature":"10","num_nodes":"23","size_leaf_vector":"1"}},{"base_weights":[1.11513195E1,-1.0384556E2,6.959763E2,-3.936586E2,7.419425E1,3.3017184E2,2.8800497E2,-3.5272006E2,-1.1184973E2,6.535278E2,-1.7669516E2,1.0119519E2,2.6266493E1,-6.315863E1,-8.828732E1,9.7995703E2,-4.79821E1,-4.7803474E1,-1.4595804E2,2.3857315E2,1.3672461E2,1.5872256E1,-4.706127E1],"categories":[],"categories_nodes":[],"categories_segments":[],"categories_sizes":[],"default_left":[0,0,0,0,0,0,0,0,0,0,0,0,0,0,0,0,0,0,0,0,0,0,0],"id":3,"left_children":[1,3,5,7,9,11,-1,13,-1,15,17,-1,-1,-1,-1,19,-1,21,-1,-1,-1,-1,-1],"loss_changes":[1.2927312E7,7.272241E6,6.138088E6,2.449995E5,1.2801826E7,5.404119E5,0E0,6.24695E4,0E0,7.898804E6,4.370491E6,0E0,0E0,0E0,0E0,7.4732E5,0E0,1.2176988E6,0E0,0E0,0E0,0E0,0E0],"parents":[2147483647,0,0,1,1,2,2,3,3,4,4,5,5,7,7,9,9,10,10,15,15,17,17],"right_children":[2,4,6,8,10,12,-1,14,-1,16,18,-1,-1,-1,-1,20,-1,22,-1,-1,-1,-1,-1],"split_conditions":[5.4E1,5E0,7E0,1.25E0,6E0,9.787234E-1,2.8800497E2,5.35E1,-1.1184973E2,1.1235955E0,1E0,1.0119519E2,2.6266493E1,-6.315863E1,-8.828732E1,9.255319E-1,-4.79821E1,1.0786517E0,-1.4595804E2,2.3857315E2,1.3672461E2,1.5872256E1,-4.706127E1],"split_indices":[0,7,7,6,7,6,0,0,0,6,2,0,0,0,0,6,0,6,0,0,0,0,0],"split_type":[0,0,0,0,0,0,0,0,0,0,0,0,0,0,0,0,0,0,0,0,0,0,0],"sum_hessian":[1.63E2,1.4E2,2.3E1,5.3E1,8.7E1,1.6E1,7E0,4.4E1,9E0,2.6E1,6.1E1,8E0,8E0,3.3E1,1.1E1,1.9E1,7E0,5E1,1.1E1,1E1,9E0,3E1,2E1],"tree_param":{"num_deleted":"0","num_feature":"10","num_nodes":"23","size_leaf_vector":"1"}},{"base_weights":[-3.4989807E1,5.2545416E2,-3.1154123E2,9.922687E2,2.8614508E2,-1.2212705E2,-2.7555292E2,2.672383E2,1.1726581E2,4.8960522E2,-3.9042145E1,-2.3139532E2,-9.8659454E1,1.842541E2,2.7422433E2,-2.5236171E2,-5.2132998E0,4.2268642E1,6.97103E1,-1.3462654E1,-5.521009E1],"categories":[],"categories_nodes":[],"categories_segments":[],"categories_sizes":[],"default_left":[0,0,0,0,0,0,0,0,0,0,0,0,0,0,0,0,0,0,0,0,0],"id":4,"left_children":[1,3,5,7,9,-1,11,-1,-1,13,-1,15,-1,-1,17,19,-1,-1,-1,-1,-1],"loss_changes":[2.607481E7,6.04088E6,1.111058E6,2.126712E6,3.7397665E6,0E0,9.08403E5,0E0,0E0,2.321487E6,0E0,3.645615E5,0E0,0E0,4.2733875E4,3.29016E5,0E0,0E0,0E0,0E0,0E0],"parents":[2147483647,0,0,1,1,2,2,3,3,4,4,6,6,9,9,11,11,14,14,15,15],"right_children":[2,4,6,8,10,-1,12,-1,-1,14,-1,16,-1,-1,18,20,-1,-1,-1,-1,-1],"split_conditions":[1.2219E1,8.032423E0,7.638889E-1,1.0192307E0,1.0786517E0,-1.2212705E2,2.756E1,2.672383E2,1.1726581E2,2.85E1,-3.9042145E1,5.4E1,-9.8659454E1,1.842541E2,1.0229E1,1.2608E1,-5.2132998E0,4.2268642E1,6.97103E1,-1.3462654E1,-5.521009E1],"split_indices":[8,8,6,6,6,0,8,0,0,0,0,0,0,0,8,8,0,0,0,0,0],"split_type":[0,0,0,0,0,0,0,0,0,0,0,0,0,0,0,0,0,0,0,0,0],"sum_hessian":[1.67E2,5.5E1,1.12E2,1.8E1,3.7E1,1.1E1,1.01E2,9E0,9E0,2.6E1,1.1E1,8.5E1,1.6E1,8E0,1.8E1,7.7E1,8E0,1.1E1,7E0,9E0,6.8E1],"tree_param":{"num_deleted":"0","num_feature":"10","num_nodes":"21","size_leaf_vector":"1"}},{"base_weights":[-1.4178348E0,-2.6035858E2,2.8530276E2,-2.2579454E2,-9.64705E1,6.9596663E0,4.4309875E2,-2.7056503E2,-1.0360741E1,6.640447E1,-5.9224895E1,1.5132285E2,3.2466745E2,-6.520199E1,-4.561105E1,1.7036624E2,1.1964314E2,4.1544693E1,2.6746683E1],"categories":[],"categories_nodes":[],"categories_segments":[],"categories_sizes":[],"default_left":[0,0,0,0,0,0,0,0,0,0,0,0,0,0,0,0,0,0,0],"id":5,"left_children":[1,3,5,7,-1,9,11,13,-1,-1,-1,-1,15,-1,-1,17,-1,-1,-1],"loss_changes":[1.1671125E7,5.68443E5,3.2746885E6,5.5711925E5,0E0,2.7781818E6,1.62E6,9.11515E4,0E0,0E0,0E0,0E0,1.4414848E6,0E0,0E0,1.56288125E4,0E0,0E0,0E0],"parents":[2147483647,0,0,1,1,2,2,3,3,5,5,6,6,7,7,12,12,15,15],"right_children":[2,4,6,8,-1,10,12,14,-1,-1,-1,-1,16,-1,-1,18,-1,-1,-1],"split_conditions":[9.6791446E-1,1E0,4.4E1,9.2743605E-1,-9.64705E1,2.85E1,5.11E1,9.037433E-1,-1.0360741E1,6.640447E1,-5.9224895E1,1.5132285E2,1.0291139E0,-6.520199E1,-4.561105E1,4.36E1,1.1964314E2,4.1544693E1,2.6746683E1],"split_indices":[5,2,1,5,0,0,1,5,0,0,0,0,5,0,0,0,0,0,0],"split_type":[0,0,0,0,0,0,0,0,0,0,0,0,0,0,0,0,0,0,0],"sum_hessian":[1.56E2,8.2E1,7.4E1,7.2E1,1E1,2.7E1,4.7E1,5.7E1,1.5E1,1.3E1,1.4E1,1.2E1,3.5E1,2.3E1,3.4E1,2.3E1,1.2E1,1E1,1.3E1],"tree_param":{"num_deleted":"0","num_feature":"10","num_nodes":"19","size_leaf_vector":"1"}},{"base_weights":[3.5803304E0,-4.9158863E1,2.1383691E2,-2.0365042E2,1.3419792E2,-7.238294E1,-1.6297916E2,-3.5741993E1,4.3375815E2,-1.3857655E2,-6.414486E1,-5.3386066E1,5.159188E1,5.188525E1,1.26148026E2,-3.467416E1,-1.2452121E1,-5.3025454E-1,1.56127615E1],"categories":[],"categories_nodes":[],"categories_segments":[],"categories_sizes":[],"default_left":[0,0,0,0,0,0,0,0,0,0,0,0,0,0,0,0,0,0,0],"id":6,"left_children":[1,3,-1,5,7,-1,9,11,13,15,-1,-1,17,-1,-1,-1,-1,-1,-1],"loss_changes":[9.057113E6,4.3674365E6,0E0,5.027265E5,3.603353E6,0E0,2.33552E5,9.289529E5,7.80932E5,1.5178262E5,0E0,0E0,4.8371117E4,0E0,0E0,0E0,0E0,0E0,0E0],"parents":[2147483647,0,0,1,1,3,3,4,4,6,6,7,7,8,8,9,9,12,12],"right_children":[2,4,-1,6,8,-1,10,12,14,16,-1,-1,18,-1,-1,-1,-1,-1,-1],"split_conditions":[1.0670391E0,9.6791446E-1,2.1383691E2,8.983957E-1,1E0,-7.238294E1,1E0,4.4E1,2.85E1,9.2743605E-1,-6.414486E1,-5.3386066E1,1.0094937E0,5.188525E1,1.26148026E2,-3.467416E1,-1.2452121E1,-5.3025454E-1,1.56127615E1],"split_indices":[5,5,0,5,2,0,2,1,0,5,0,0,5,0,0,0,0,0,0],"split_type":[0,0,0,0,0,0,0,0,0,0,0,0,0,0,0,0,0,0,0],"sum_hessian":[1.6E2,1.53E2,7E0,8.3E1,7E1,1.6E1,6.7E1,4.5E1,2.5E1,5.9E1,8E0,1.2E1,3.3E1,1.4E1,1.1E1,4E1,1.9E1,1.1E1,2.2E1],"tree_param":{"num_deleted":"0","num_feature":"10","num_nodes":"19","size_leaf_vector":"1"}},{"base_weights":[2.2113115E1,4.0042044E2,-1.7216293E2,1.2217379E2,2.387333E2,-1.27249054E2,-2.84936E2,3.204574E2,1.9068932E1,-4.4386654E1,-1.7391113E2,-6.809326E1,-3.5321255E1,7.830847E1,4.586877E1,1.226968E1,-2.9632694E1,-1.4614326E1,-5.4919094E1],"categories":[],"categories_nodes":[],"categories_segments":[],"categories_sizes":[],"default_left":[0,0,0,0,0,0,0,0,0,0,0,0,0,0,0,0,0,0,0],"id":7,"left_children":[1,3,5,-1,7,9,11,13,-1,15,17,-1,-1,-1,-1,-1,-1,-1,-1],"loss_changes":[1.0962877E7,1.634256E6,4.7766175E5,0E0,3.285295E5,2.7221212E5,1.2995275E5,6.6589875E4,0E0,2.973315E5,4.5093575E5,0E0,0E0,0E0,0E0,0E0,0E0,0E0,0E0],"parents":[2147483647,0,0,1,1,2,2,4,4,5,5,6,6,7,7,9,9,10,10],"right_children":[2,4,6,-1,8,10,12,14,-1,16,18,-1,-1,-1,-1,-1,-1,-1,-1],"split_conditions":[1.2219E1,8.478153E0,2.3961E1,1.2217379E2,4.36E1,4E0,5.35E1,1.129601E1,1.9068932E1,2.1767E1,1.275351E1,-6.809326E1,-3.5321255E1,7.830847E1,4.586877E1,1.226968E1,-2.9632694E1,-1.4614326E1,-5.4919094E1],"split_indices":[8,8,8,0,0,7,0,8,0,8,8,0,0,0,0,0,0,0,0],"split_type":[0,0,0,0,0,0,0,0,0,0,0,0,0,0,0,0,0,0,0],"sum_hessian":[1.48E2,5E1,9.8E1,2.1E1,2.9E1,7.1E1,2.7E1,1.8E1,1.1E1,2.6E1,4.5E1,1.7E1,1E1,9E0,9E0,1.3E1,1.3E1,2.3E1,2.2E1],"tree_param":{"num_deleted":"0","num_feature":"10","num_nodes":"19","size_leaf_vector":"1"}},{"base_weights":[4.2421795E1,-6.641809E2,1.3196547E2,-1.6361635E2,-1.0324835E2,4.7301947E2,-3.5034966E1,7.860537E1,6.846229E2,-1.04157616E2,1.8488551E2,6.571831E1,-4.867446E1,2.2308968E2,4.639094E2,-2.3757852E2,-3.3891884E1,2.8156906E2,-5.6332912E0,1.2908604E2,6.840093E1,-3.390746E1,-6.356957E1,1.5116226E1,-1.9238441E1,8.024244E0,9.505945E1],"categories":[],"categories_nodes":[],"categories_segments":[],"categories_sizes":[],"default_left":[0,0,0,0,0,0,0,0,0,0,0,0,0,0,0,0,0,0,0,0,0,0,0,0,0,0,0],"id":8,"left_children":[1,3,5,-1,-1,7,9,11,13,15,17,-1,-1,-1,19,21,23,25,-1,-1,-1,-1,-1,-1,-1,-1,-1],"loss_changes":[9.897682E6,1.473195E5,7.904068E6,0E0,0E0,3.773459E6,1.4344132E6,1.3841154E6,2.504153E6,6.6641294E5,4.7028738E5,0E0,0E0,0E0,3.23398E5,1.0202375E5,3.2900394E5,7.1825225E5,0E0,0E0,0E0,0E0,0E0,0E0,0E0,0E0,0E0],"parents":[2147483647,0,0,1,1,2,2,5,5,6,6,7,7,8,8,9,9,10,10,14,14,15,15,16,16,17,17],"right_children":[2,4,6,-1,-1,8,10,12,14,16,18,-1,-1,-1,20,22,24,26,-1,-1,-1,-1,-1,-1,-1,-1,-1],"split_conditions":[3E0,1.261396E1,1.2219E1,-1.6361635E2,-1.0324835E2,1.4E1,6E1,1.0192307E0,1E0,1.4E1,1.011236E0,6.571831E1,-4.867446E1,2.2308968E2,8.478153E0,1.909018E1,9.787234E-1,9.037433E-1,-5.6332912E0,1.2908604E2,6.840093E1,-3.390746E1,-6.356957E1,1.5116226E1,-1.9238441E1,8.024244E0,9.505945E1],"split_indices":[9,8,8,0,0,9,9,6,6,9,6,0,0,0,8,8,6,5,0,0,0,0,0,0,0,0,0],"split_type":[0,0,0,0,0,0,0,0,0,0,0,0,0,0,0,0,0,0,0,0,0,0,0,0,0,0,0],"sum_hessian":[1.55E2,1.7E1,1.38E2,7E0,1E1,4.5E1,9.3E1,1.6E1,2.9E1,7.1E1,2.2E1,9E0,7E0,9E0,2E1,2.4E1,4.7E1,1.5E1,7E0,7E0,1.3E1,1.4E1,1E1,1.7E1,3E1,7E0,8E0],"tree_param":{"num_deleted":"0","num_feature":"10","num_nodes":"27","size_leaf_vector":"1"}},{"base_weights":[7.654145E0,-1.0992632E2,6.945404E1,-4.6175037E1,2.1819434E2,-1.9316173E2,4.0356808E1,5.6512516E1,4.1613904E2,-5.4815742E1,-1.4982678E2,-2.1511759E1,1.5709372E2,-1.2183455E2,6.1166096E1,1.3068553E2,2.8024368E2,-1.6179256E1,-5.226954E1,-1.3568949E1,1.657247E1,7.6096673E0,5.5804317E1,-3.375283E1,-5.64735E0,2.703218E1,7.2160515E1],"categories":[],"categories_nodes":[],"categories_segments":[],"categories_sizes":[],"default_left":[0,0,0,0,0,0,0,0,0,0,0,0,0,0,0,0,0,0,0,0,0,0,0,0,0,0,0],"id":9,"left_children":[1,-1,3,5,7,9,11,13,15,-1,17,19,21,23,-1,-1,25,-1,-1,-1,-1,-1,-1,-1,-1,-1,-1],"loss_changes":[5.3817995E6,0E0,2.4241828E6,1.0171119E6,1.95734E6,7.915475E4,3.6747825E5,1.5608499E6,7.8013E5,0E0,1.4567094E5,1.6586144E5,2.4909328E5,8.762641E4,0E0,0E0,1.8813138E5,0E0,0E0,0E0,0E0,0E0,0E0,0E0,0E0,0E0,0E0],"parents":[2147483647,0,0,2,2,3,3,4,4,5,5,6,6,7,7,8,8,10,10,11,11,12,12,13,13,16,16],"right_children":[2,-1,4,6,8,10,12,14,16,-1,18,20,22,24,-1,-1,26,-1,-1,-1,-1,-1,-1,-1,-1,-1,-1],"split_conditions":[3E0,-1.0992632E2,9.6791446E-1,2.1E1,2.1E1,4E0,6E1,1E0,1.0179105E0,-5.4815742E1,1E0,9.2743605E-1,4E0,1.0291139E0,6.1166096E1,1.3068553E2,6E1,-1.6179256E1,-5.226954E1,-1.3568949E1,1.657247E1,7.6096673E0,5.5804317E1,-3.375283E1,-5.64735E0,2.703218E1,7.2160515E1],"split_indices":[9,0,5,9,9,7,9,2,5,0,2,5,7,5,0,0,9,0,0,0,0,0,0,0,0,0,0],"split_type":[0,0,0,0,0,0,0,0,0,0,0,0,0,0,0,0,0,0,0,0,0,0,0,0,0,0,0],"sum_hessian":[1.55E2,1.5E1,1.4E2,7.9E1,6.1E1,2.9E1,5E1,3.4E1,2.7E1,9E0,2E1,3.3E1,1.7E1,2E1,1.4E1,9E0,1.8E1,1.3E1,7E0,2.3E1,1E1,9E0,8E0,1.3E1,7E0,7E0,1.1E1],"tree_param":{"num_deleted":"0","num_feature":"10","num_nodes":"27","size_leaf_vector":"1"}},{"base_weights":[-3.0280294E0,3.7179086E2,-6.159712E1,1.0677245E2,3.8097782E1,-2.3499876E-1,-1.7912253E2,2.2255673E2,-7.677879E1,-9.37114E1,-8.0215294E1,6.618057E1,2.0722534E1,-1.3998769E2,4.7400513E1,-1.3787352E2,1.7193909E0,-2.684755E0,-3.2322136E1,-1.9042145E1,5.5236248E1,-3.226395E1,-2.3327856E1],"categories":[],"categories_nodes":[],"categories_segments":[],"categories_sizes":[],"default_left":[0,0,0,0,0,0,0,0,0,0,0,0,0,0,0,0,0,0,0,0,0,0,0],"id":10,"left_children":[1,3,5,-1,-1,7,9,11,13,15,-1,-1,-1,17,19,21,-1,-1,-1,-1,-1,-1,-1],"loss_changes":[3.6710772E6,6.0305825E5,1.04277325E6,0E0,0E0,1.6405505E6,9.177325E5,2.9645188E5,5.6598675E5,1.660756E5,0E0,0E0,0E0,1.2896475E5,8.183941E5,1.4555625E3,0E0,0E0,0E0,0E0,0E0,0E0,0E0],"parents":[2147483647,0,0,1,1,2,2,5,5,6,6,7,7,8,8,9,9,13,13,14,14,15,15],"right_children":[2,4,6,-1,-1,8,10,12,14,16,-1,-1,-1,18,20,22,-1,-1,-1,-1,-1,-1,-1],"split_conditions":[8.478153E0,1.0192307E0,1.011236E0,1.0677245E2,3.8097782E1,1.2608E1,9.3582886E-1,1E0,9.6791446E-1,9.2743605E-1,-8.0215294E1,6.618057E1,2.0722534E1,1.261396E1,9.6629214E-1,1.261396E1,1.7193909E0,-2.684755E0,-3.2322136E1,-1.9042145E1,5.5236248E1,-3.226395E1,-2.3327856E1],"split_indices":[8,6,6,0,0,8,5,6,5,5,0,0,0,8,6,8,0,0,0,0,0,0,0],"split_type":[0,0,0,0,0,0,0,0,0,0,0,0,0,0,0,0,0,0,0,0,0,0,0],"sum_hessian":[1.66E2,2.2E1,1.44E2,1.1E1,1.1E1,9.5E1,4.9E1,2.4E1,7.1E1,3.6E1,1.3E1,1.2E1,1.2E1,4.7E1,2.4E1,2.5E1,1.1E1,7E0,4E1,1.5E1,9E0,1E1,1.5E1],"tree_param":{"num_deleted":"0","num_feature":"10","num_nodes":"23","size_leaf_vector":"1"}},{"base_weights":[-1.1325661E1,-2.5196028E2,1.3515279E2,-4.5485672E2,-1.2924951E2,4.263236E2,1.1926889E1,-1.2861684E2,-6.0384613E1,-1.6708989E2,-3.9671733E0,6.0108307E2,-2.5402592E1,1.12875626E2,-2.3905859E1,-1.352374E2,-4.4335793E1,4.8947424E2,1.5654417E2,1.7261913E1,2.6477392E1,-3.507887E1,9.778383E0,-3.815094E1,-1.9062178E1,4.6101208E1,1.487749E2,3.0423386E1,-1.3613194E1],"categories":[],"categories_nodes":[],"categories_segments":[],"categories_sizes":[],"default_left":[0,0,0,0,0,0,0,0,0,0,0,0,0,0,0,0,0,0,0,0,0,0,0,0,0,0,0,0,0],"id":11,"left_children":[1,3,5,7,9,11,13,-1,-1,15,-1,17,-1,19,21,23,-1,25,-1,-1,-1,-1,27,-1,-1,-1,-1,-1,-1],"loss_changes":[5.645978E6,1.4735192E6,3.570576E6,5.340735E5,1.5782512E5,2.9081505E6,2.5699834E5,0E0,0E0,3.1742125E4,0E0,2.28283E5,0E0,2.7853281E3,2.69435E5,3.2536969E4,0E0,9.248725E5,0E0,0E0,0E0,0E0,4.8931134E5,0E0,0E0,0E0,0E0,0E0,0E0],"parents":[2147483647,0,0,1,1,2,2,3,3,4,4,5,5,6,6,9,9,11,11,13,13,14,14,15,15,17,17,22,22],"right_children":[2,4,6,8,10,12,14,-1,-1,16,-1,18,-1,20,22,24,-1,26,-1,-1,-1,-1,28,-1,-1,-1,-1,-1,-1],"split_conditions":[1.4E1,3E0,1.2219E1,1.261396E1,1E0,1.0786517E0,1.275351E1,-1.2861684E2,-6.0384613E1,1.0786517E0,-3.9671733E0,1E0,-2.5402592E1,1.2608E1,1.599865E1,9.6629214E-1,-4.4335793E1,6E1,1.5654417E2,1.7261913E1,2.6477392E1,-3.507887E1,9.787234E-1,-3.815094E1,-1.9062178E1,4.6101208E1,1.487749E2,3.0423386E1,-1.3613194E1],"split_indices":[9,9,8,8,2,6,8,0,0,6,0,2,0,8,8,6,0,9,0,0,0,0,6,0,0,0,0,0,0],"split_type":[0,0,0,0,0,0,0,0,0,0,0,0,0,0,0,0,0,0,0,0,0,0,0,0,0,0,0,0,0],"sum_hessian":[1.59E2,6E1,9.9E1,2.2E1,3.8E1,2.9E1,7E1,9E0,1.3E1,2.8E1,1E1,2.2E1,7E0,1.8E1,5.2E1,1.9E1,9E0,1.5E1,7E0,9E0,9E0,9E0,4.3E1,7E0,1.2E1,8E0,7E0,1.5E1,2.8E1],"tree_param":{"num_deleted":"0","num_feature":"10","num_nodes":"29","size_leaf_vector":"1"}},{"base_weights":[-1.4409359E0,-1.9567253E1,6.701006E1,1.0836054E2,-6.0079365E1,2.1093755E2,-3.520914E1,-1.1341869E1,-1.3570477E2,2.7182322E1,5.2802E1,-1.0375293E0,-1.1355117E1,-5.351406E1,9.3622696E1,-1.7471384E2,-7.948763E1,-1.804279E1,-6.3593087E0,2.7384276E0,3.853603E1,-2.6464802E1,-3.8191307E1,-2.4224615E1,-6.6705775E0],"categories":[],"categories_nodes":[],"categories_segments":[],"categories_sizes":[],"default_left":[0,0,0,0,0,0,0,0,0,0,0,0,0,0,0,0,0,0,0,0,0,0,0,0,0],"id":12,"left_children":[1,3,-1,5,7,9,11,13,15,-1,-1,-1,-1,17,19,21,23,-1,-1,-1,-1,-1,-1,-1,-1],"loss_changes":[1.02618425E6,8.3105306E5,0E0,5.729164E5,4.472689E5,6.8459625E4,1.05710625E4,3.332294E5,9.605319E4,0E0,0E0,0E0,0E0,4.0999734E4,1.6943975E5,3.8424375E3,3.714543E4,0E0,0E0,0E0,0E0,0E0,0E0,0E0,0E0],"parents":[2147483647,0,0,1,1,3,3,4,4,5,5,6,6,7,7,8,8,13,13,14,14,15,15,16,16],"right_children":[2,4,-1,6,8,10,12,14,16,-1,-1,-1,-1,18,20,22,24,-1,-1,-1,-1,-1,-1,-1,-1],"split_conditions":[1.0670391E0,5.11E1,6.701006E1,1E0,4.36E1,2.85E1,4E0,9.2743605E-1,1E0,2.7182322E1,5.2802E1,-1.0375293E0,-1.1355117E1,9.037433E-1,4E0,9.4678646E-1,6E0,-1.804279E1,-6.3593087E0,2.7384276E0,3.853603E1,-2.6464802E1,-3.8191307E1,-2.4224615E1,-6.6705775E0],"split_indices":[5,1,0,5,0,0,7,5,4,0,0,0,0,5,7,5,7,0,0,0,0,0,0,0,0],"split_type":[0,0,0,0,0,0,0,0,0,0,0,0,0,0,0,0,0,0,0,0,0,0,0,0,0],"sum_hessian":[1.67E2,1.59E2,8E0,3.8E1,1.21E2,2.2E1,1.6E1,7.4E1,4.7E1,1E1,1.2E1,7E0,9E0,5.3E1,2.1E1,2.7E1,2E1,1.9E1,3.4E1,1.2E1,9E0,9E0,1.8E1,1E1,1E1],"tree_param":{"num_deleted":"0","num_feature":"10","num_nodes":"25","size_leaf_vector":"1"}},{"base_weights":[-9.088982E0,-3.4068695E2,5.38953E1,-4.524316E1,-8.465876E1,1.1434458E2,-9.039203E1,-4.607341E1,2.5073973E2,3.2916887E0,-9.455657E1,-1.23907936E2,3.5392647E0,6.438847E1,4.7166235E2,-2.0759153E1,4.223139E1,-3.4804104E1,-1.3030126E1,-5.619966E0,8.006381E0,-1.3822263E1,8.423197E1,5.769219E1,1.1203843E2,-6.74918E0,1.6498405E1],"categories":[],"categories_nodes":[],"categories_segments":[],"categories_sizes":[],"default_left":[0,0,0,0,0,0,0,0,0,0,0,0,0,0,0,0,0,0,0,0,0,0,0,0,0,0,0],"id":13,"left_children":[1,3,5,-1,-1,7,9,11,13,15,-1,17,19,21,23,-1,25,-1,-1,-1,-1,-1,-1,-1,-1,-1,-1],"loss_changes":[3.2190235E6,1.7516675E5,1.1365811E6,0E0,0E0,2.0111612E6,1.3837321E6,1.6476639E5,2.0237702E6,1.344006E5,0E0,4.207583E4,3.138713E4,1.3320219E6,2.695885E5,0E0,7.386016E4,0E0,0E0,0E0,0E0,0E0,0E0,0E0,0E0,0E0,0E0],"parents":[2147483647,0,0,1,1,2,2,5,5,6,6,7,7,8,8,9,9,11,11,12,12,13,13,14,14,16,16],"right_children":[2,4,6,-1,-1,8,10,12,14,16,-1,18,20,22,24,-1,26,-1,-1,-1,-1,-1,-1,-1,-1,-1,-1],"split_conditions":[5E0,9.831461E-1,1.0786517E0,-4.524316E1,-8.465876E1,9.6791446E-1,1E0,2.1E1,2.1E1,1.4E1,-9.455657E1,9.037433E-1,4E0,1E0,4E0,-2.0759153E1,4E0,-3.4804104E1,-1.3030126E1,-5.619966E0,8.006381E0,-1.3822263E1,8.423197E1,5.769219E1,1.1203843E2,-6.74918E0,1.6498405E1],"split_indices":[9,6,6,0,0,5,5,9,9,9,0,5,7,2,7,0,7,0,0,0,0,0,0,0,0,0,0],"split_type":[0,0,0,0,0,0,0,0,0,0,0,0,0,0,0,0,0,0,0,0,0,0,0,0,0,0,0],"sum_hessian":[1.53E2,2.4E1,1.29E2,1.1E1,1.3E1,9.1E1,3.8E1,4.2E1,4.9E1,3.1E1,7E0,1.6E1,2.6E1,2.7E1,2.2E1,8E0,2.3E1,8E0,8E0,1.4E1,1.2E1,2E1,7E0,8E0,1.4E1,8E0,1.5E1],"tree_param":{"num_deleted":"0","num_feature":"10","num_nodes":"27","size_leaf_vector":"1"}},{"base_weights":[-6.180538E0,-3.1438986E2,4.595018E1,-9.840746E1,-2.043641E2,2.8750458E2,8.7751665E0,-2.8549824E1,-4.8911324E1,-4.8060455E0,1.1621407E2,-2.4289461E1,1.2191461E2,3.617019E1,-4.712561E1,1.4864499E2,7.967275E0,2.6171083E0,-1.7390356E1,4.0897804E1,1.12912855E1],"categories":[],"categories_nodes":[],"categories_segments":[],"categories_sizes":[],"default_left":[0,0,0,0,0,0,0,0,0,0,0,0,0,0,0,0,0,0,0,0,0],"id":14,"left_children":[1,3,5,-1,7,9,11,-1,-1,-1,-1,13,15,-1,17,19,-1,-1,-1,-1,-1],"loss_changes":[2.6211902E6,4.0094775E5,1.2520648E6,0E0,1.7686625E4,1.7094585E6,4.566718E5,0E0,0E0,0E0,0E0,4.4827834E5,5.7001062E4,0E0,2.0594973E5,9.9125625E4,0E0,0E0,0E0,0E0,0E0],"parents":[2147483647,0,0,1,1,2,2,4,4,5,5,6,6,11,11,12,12,14,14,15,15],"right_children":[2,4,6,-1,8,10,12,-1,-1,-1,-1,14,16,-1,18,20,-1,-1,-1,-1,-1],"split_conditions":[3E0,1.2608E1,8.478153E0,-9.840746E1,9.6276593E-1,2.1E1,9E1,-2.8549824E1,-4.8911324E1,-4.8060455E0,1.1621407E2,2.85E1,2.3961E1,3.617019E1,1E0,1.011236E0,7.967275E0,2.6171083E0,-1.7390356E1,4.0897804E1,1.12912855E1],"split_indices":[9,8,8,0,6,9,9,0,0,0,0,0,8,0,6,6,0,0,0,0,0],"split_type":[0,0,0,0,0,0,0,0,0,0,0,0,0,0,0,0,0,0,0,0,0],"sum_hessian":[1.62E2,2.3E1,1.39E2,8E0,1.5E1,1.8E1,1.21E2,7E0,8E0,9E0,9E0,9.4E1,2.7E1,9E0,8.5E1,2E1,7E0,3.4E1,5.1E1,1.2E1,8E0],"tree_param":{"num_deleted":"0","num_feature":"10","num_nodes":"21","size_leaf_vector":"1"}},{"base_weights":[1.7962404E1,-1.13220764E2,8.8744514E1,-1.9765466E2,-6.8587685E1,2.3820393E2,2.556774E1,-5.6711914E1,-1.3598619E1,-2.6792412E1,-1.3619118E2,3.613006E2,-5.223562E0,-1.017673E1,9.164237E1,-1.9715836E1,2.6427805E1,-1.6408121E1,-3.5917965E1,5.0294575E1,1.0875234E2,2.0104872E1,-4.328623E1,-2.744841E0,1.2969342E2,1.5496335E1,-5.342494E0,4.184604E0,-2.1234077E1,4.289555E1,5.594312E0],"categories":[],"categories_nodes":[],"categories_segments":[],"categories_sizes":[],"default_left":[0,0,0,0,0,0,0,0,0,0,0,0,0,0,0,0,0,0,0,0,0,0,0,0,0,0,0,0,0,0,0],"id":15,"left_children":[1,3,5,7,9,11,13,-1,-1,15,17,19,-1,21,23,-1,25,-1,-1,-1,-1,-1,27,-1,29,-1,-1,-1,-1,-1,-1],"loss_changes":[1.5251236E6,2.0893419E5,1.0029018E6,2.0674781E5,1.0687519E5,1.033835E6,1.7911184E5,0E0,0E0,9.554761E4,2.5470719E4,3.50804E5,0E0,1.8440756E5,1.0771556E5,0E0,4.0851883E4,0E0,0E0,0E0,0E0,0E0,1.5718978E5,0E0,1.6543903E5,0E0,0E0,0E0,0E0,0E0,0E0],"parents":[2147483647,0,0,1,1,2,2,3,3,4,4,5,5,6,6,9,9,10,10,11,11,13,13,14,14,16,16,22,22,24,24],"right_children":[2,4,6,8,10,12,14,-1,-1,16,18,20,-1,22,24,-1,26,-1,-1,-1,-1,-1,28,-1,30,-1,-1,-1,-1,-1,-1],"split_conditions":[1.4E1,3E0,1.2219E1,4.36E1,1.0344827E0,1.0786517E0,6E1,-5.6711914E1,-1.3598619E1,9.6629214E-1,9.3048126E-1,6E1,-5.223562E0,1.275351E1,9.037433E-1,-1.9715836E1,1.129601E1,-1.6408121E1,-3.5917965E1,5.0294575E1,1.0875234E2,2.0104872E1,9.787234E-1,-2.744841E0,1.011236E0,1.5496335E1,-5.342494E0,4.184604E0,-2.1234077E1,4.289555E1,5.594312E0],"split_indices":[9,9,8,0,6,6,9,0,0,6,5,9,0,8,5,0,8,0,0,0,0,0,6,0,6,0,0,0,0,0,0],"split_type":[0,0,0,0,0,0,0,0,0,0,0,0,0,0,0,0,0,0,0,0,0,0,0,0,0,0,0,0,0,0,0],"sum_hessian":[1.63E2,5.7E1,1.06E2,1.9E1,3.8E1,3.1E1,7.5E1,1.1E1,8E0,2.4E1,1.4E1,2.1E1,1E1,4.9E1,2.6E1,1E1,1.4E1,7E0,7E0,1.4E1,7E0,1.1E1,3.8E1,7E0,1.9E1,7E0,7E0,1.9E1,1.9E1,1E1,9E0],"tree_param":{"num_deleted":"0","num_feature":"10","num_nodes":"31","size_leaf_vector":"1"}},{"base_weights":[8.6308E-1,1.1080723E2,-2.3403282E1,3.1721144E1,6.510797E0,-4.195193E1,-1.1736476E1,-3.0121922E0,-2.543476E1,-1.2642665E1,2.4777527E0,3.1990742E1,-1.9350863E0],"categories":[],"categories_nodes":[],"categories_segments":[],"categories_sizes":[],"default_left":[0,0,0,0,0,0,0,0,0,0,0,0,0],"id":16,"left_children":[1,3,5,-1,-1,-1,7,9,-1,-1,11,-1,-1],"loss_changes":[4.2202397E5,1.03877125E5,2.802971E5,0E0,0E0,0E0,1.23241586E5,3.7969375E4,0E0,0E0,2.0302947E5,0E0,0E0],"parents":[2147483647,0,0,1,1,2,2,6,6,7,7,10,10],"right_children":[2,4,6,-1,-1,-1,8,10,-1,-1,12,-1,-1],"split_conditions":[1.006E1,5.35E1,1.0229E1,3.1721144E1,6.510797E0,-4.195193E1,2.7985E1,1.137687E1,-2.543476E1,-1.2642665E1,1.2412E1,3.1990742E1,-1.9350863E0],"split_indices":[8,0,8,0,0,0,8,8,0,0,8,0,0],"split_type":[0,0,0,0,0,0,0,0,0,0,0,0,0],"sum_hessian":[1.57E2,2.8E1,1.29E2,1.7E1,1.1E1,7E0,1.22E2,1.14E2,8E0,9E0,1.05E2,7E0,9.8E1],"tree_param":{"num_deleted":"0","num_feature":"10","num_nodes":"13","size_leaf_vector":"1"}},{"base_weights":[-3.9296012E0,5.8170956E1,-3.9291317E1,2.2885039E2,-2.3111503E0,-1.909659E1,-4.7588284E1,6.775003E1,2.3152674E1,-4.0802986E1,2.4692568E1,1.9692333E1,-3.5080254E1,3.342526E1,-9.863354E1,-1.035595E2,-1.6939972E1,5.2389503E0,7.7936625E0,-9.201388E0,-3.0115498E1,-2.788212E1,-1.1262917E1,1.4053243E0,-1.0365384E1],"categories":[],"categories_nodes":[],"categories_segments":[],"categories_sizes":[],"default_left":[0,0,0,0,0,0,0,0,0,0,0,0,0,0,0,0,0,0,0,0,0,0,0,0,0],"id":17,"left_children":[1,3,5,7,9,11,-1,-1,-1,13,-1,-1,15,17,19,21,23,-1,-1,-1,-1,-1,-1,-1,-1],"loss_changes":[3.6063403E5,6.155712E5,4.168958E5,1.7035162E5,2.189433E5,1.8170592E5,0E0,0E0,0E0,1.5050416E5,0E0,0E0,1.04040305E5,1.2775391E1,4.9422625E4,2.5100047E4,5.67403E4,0E0,0E0,0E0,0E0,0E0,0E0,0E0,0E0],"parents":[2147483647,0,0,1,1,2,2,3,3,4,4,5,5,9,9,12,12,13,13,14,14,15,15,16,16],"right_children":[2,4,6,8,10,12,-1,-1,-1,14,-1,-1,16,18,20,22,24,-1,-1,-1,-1,-1,-1,-1,-1],"split_conditions":[1E0,1.1466E1,5.35E1,5.082E1,9.4148934E-1,1.006E1,-4.7588284E1,6.775003E1,2.3152674E1,4.36E1,2.4692568E1,1.9692333E1,1.137687E1,8.269231E-1,1.356453E1,8.274E1,2.280151E1,5.2389503E0,7.7936625E0,-9.201388E0,-3.0115498E1,-2.788212E1,-1.1262917E1,1.4053243E0,-1.0365384E1],"split_indices":[6,8,0,0,6,8,0,0,0,0,0,0,8,6,8,1,8,0,0,0,0,0,0,0,0],"split_type":[0,0,0,0,0,0,0,0,0,0,0,0,0,0,0,0,0,0,0,0,0,0,0,0,0],"sum_hessian":[1.63E2,5.9E1,1.04E2,1.5E1,4.4E1,9.5E1,9E0,7E0,8E0,3.4E1,1E1,1.1E1,8.4E1,1.5E1,1.9E1,1.7E1,6.7E1,8E0,7E0,1E1,9E0,9E0,8E0,4E1,2.7E1],"tree_param":{"num_deleted":"0","num_feature":"10","num_nodes":"25","size_leaf_vector":"1"}},{"base_weights":[-5.1013656E0,-2.0229019E2,3.150426E1,-2.2503584E1,-5.398722E1,1.7376924E0,1.6894125E2,-2.767857E1,7.822436E1,-1.7519428E1,6.613625E1,-7.247763E1,-3.8561141E0,1.121908E2,3.3573358E0,-1.6585968E1,-8.719948E0,9.8098135E0,-5.557629E0,6.8171954E0,4.1942852E1],"categories":[],"categories_nodes":[],"categories_segments":[],"categories_sizes":[],"default_left":[0,0,0,0,0,0,0,0,0,0,0,0,0,0,0,0,0,0,0,0,0],"id":18,"left_children":[1,3,5,-1,-1,7,9,11,13,-1,-1,15,17,19,-1,-1,-1,-1,-1,-1,-1],"loss_changes":[1.134197E6,1.3116544E5,5.4229406E5,0E0,0E0,2.478938E5,9.9660344E5,8.47833E4,6.272672E4,0E0,0E0,6.161297E3,6.741614E4,1.4500519E5,0E0,0E0,0E0,0E0,0E0,0E0,0E0],"parents":[2147483647,0,0,1,1,2,2,5,5,6,6,7,7,8,8,11,11,12,12,13,13],"right_children":[2,4,6,-1,-1,8,10,12,14,-1,-1,16,18,20,-1,-1,-1,-1,-1,-1,-1],"split_conditions":[5E0,9.6791446E-1,1E0,-2.2503584E1,-5.398722E1,6E1,9.6791446E-1,1.4E1,9.890531E-1,-1.7519428E1,6.613625E1,1.0179105E0,1E0,9.0909094E-1,3.3573358E0,-1.6585968E1,-8.719948E0,9.8098135E0,-5.557629E0,6.8171954E0,4.1942852E1],"split_indices":[9,5,2,0,0,9,5,9,5,0,0,5,3,5,0,0,0,0,0,0,0],"split_type":[0,0,0,0,0,0,0,0,0,0,0,0,0,0,0,0,0,0,0,0,0],"sum_hessian":[1.56E2,2.4E1,1.32E2,1.1E1,1.3E1,1.09E2,2.3E1,7.9E1,3E1,9E0,1.4E1,2.7E1,5.2E1,1.9E1,1.1E1,1.9E1,8E0,1.6E1,3.6E1,1.1E1,8E0],"tree_param":{"num_deleted":"0","num_feature":"10","num_nodes":"21","size_leaf_vector":"1"}},{"base_weights":[9.248926E0,3.9425003E1,-6.821067E1,1.1852816E1,4.5489437E1,-4.978732E1,-2.0735392E1,-2.7750736E1,7.127966E1,-1.955526E1,1.7440119E0,-1.6443626E1,-1.7942595E1,1.7460976E2,-1.9078474E1,-8.468493E0,3.9719578E1,7.2605476E0,-5.168563E0,4.5130165E1,1.7927189E1,5.4029965E0,-1.7055939E1,1.0103985E1,5.156695E0],"categories":[],"categories_nodes":[],"categories_segments":[],"categories_sizes":[],"default_left":[0,0,0,0,0,0,0,0,0,0,0,0,0,0,0,0,0,0,0,0,0,0,0,0,0],"id":19,"left_children":[1,3,5,7,-1,-1,9,11,13,-1,15,17,-1,19,21,-1,23,-1,-1,-1,-1,-1,-1,-1,-1],"loss_changes":[3.4661772E5,5.5101644E5,3.538315E5,2.2147577E5,0E0,0E0,5.8291914E4,3.8769613E4,3.5305925E5,0E0,4.5543055E4,2.4657469E4,0E0,6.4198062E4,6.4242016E4,0E0,1.4159668E3,0E0,0E0,0E0,0E0,0E0,0E0,0E0,0E0],"parents":[2147483647,0,0,1,1,2,2,3,3,6,6,7,7,8,8,10,10,11,11,13,13,14,14,16,16],"right_children":[2,4,6,8,-1,-1,10,12,14,-1,16,18,-1,20,22,-1,24,-1,-1,-1,-1,-1,-1,-1,-1],"split_conditions":[1.0786517E0,5.4E1,1.1458334E0,9.786096E-1,4.5489437E1,-4.978732E1,1.137687E1,4.36E1,1.0094937E0,-1.955526E1,4E0,8.269231E-1,-1.7942595E1,4.36E1,5E0,-8.468493E0,1.25E0,7.2605476E0,-5.168563E0,4.5130165E1,1.7927189E1,5.4029965E0,-1.7055939E1,1.0103985E1,5.156695E0],"split_indices":[6,0,6,5,0,0,8,0,5,0,7,6,0,0,7,0,6,0,0,0,0,0,0,0,0],"split_type":[0,0,0,0,0,0,0,0,0,0,0,0,0,0,0,0,0,0,0,0,0,0,0,0,0],"sum_hessian":[1.47E2,1.06E2,4.1E1,9.3E1,1.3E1,8E0,3.3E1,5.6E1,3.7E1,7E0,2.6E1,4.8E1,8E0,1.7E1,2E1,1.2E1,1.4E1,7E0,4.1E1,1E1,7E0,1.2E1,8E0,7E0,7E0],"tree_param":{"num_deleted":"0","num_feature":"10","num_nodes":"25","size_leaf_vector":"1"}},{"base_weights":[9.906448E0,6.4144104E1,-1.8461811E1,2.4973585E1,4.923901E1,-3.1778788E1,2.3061392E1,1.1398979E2,-2.5453888E1,-7.6146493E0,-4.502336E1,4.112274E1,-2.1489742E0,-1.4670481E1,1.4708289E1,-5.6665768E1,8.857068E0,6.7237854E-2,6.340268E0,-1.4938171E1,-8.990823E0,5.7087665E0,-4.3606963E0],"categories":[],"categories_nodes":[],"categories_segments":[],"categories_sizes":[],"default_left":[0,0,0,0,0,0,0,0,0,0,0,0,0,0,0,0,0,0,0,0,0,0,0],"id":20,"left_children":[1,3,5,7,-1,9,-1,11,13,15,-1,-1,-1,-1,17,19,21,-1,-1,-1,-1,-1,-1],"loss_changes":[2.4473692E5,3.856652E5,1.8853258E5,2.06433E5,0E0,4.456E5,0E0,1.9104162E5,5.75891E4,6.946218E4,0E0,0E0,0E0,0E0,4.0477537E3,2.5452422E3,3.9366426E4,0E0,0E0,0E0,0E0,0E0,0E0],"parents":[2147483647,0,0,1,1,2,2,3,3,5,5,7,7,8,8,9,9,14,14,15,15,16,16],"right_children":[2,4,6,8,-1,10,-1,12,14,16,-1,-1,-1,-1,18,20,22,-1,-1,-1,-1,-1,-1],"split_conditions":[1E0,9.6629214E-1,9E0,4.36E1,4.923901E1,1.0094937E0,2.3061392E1,8.5393256E-1,8.680556E-1,9.037433E-1,-4.502336E1,4.112274E1,-2.1489742E0,-1.4670481E1,1.0386076E0,8.5561496E-1,1.1612903E0,6.7237854E-2,6.340268E0,-1.4938171E1,-8.990823E0,5.7087665E0,-4.3606963E0],"split_indices":[6,6,7,0,0,5,0,6,6,5,0,0,0,0,5,5,6,0,0,0,0,0,0],"split_type":[0,0,0,0,0,0,0,0,0,0,0,0,0,0,0,0,0,0,0,0,0,0,0],"sum_hessian":[1.58E2,5.4E1,1.04E2,4.5E1,9E0,9.5E1,9E0,1.6E1,2.9E1,8.5E1,1E1,9E0,7E0,1.3E1,1.6E1,2.1E1,6.4E1,9E0,7E0,7E0,1.4E1,3.9E1,2.5E1],"tree_param":{"num_deleted":"0","num_feature":"10","num_nodes":"23","size_leaf_vector":"1"}},{"base_weights":[-2.2967512E1,-8.110782E1,4.429743E1,-1.754014E2,-4.930091E1,9.2214386E1,-4.396463E1,-1.8959572E1,-5.236695E1,-1.302342E2,-1.4885217E1,2.8774176E1,1.7872568E2,3.279408E1,-3.959698E1,-9.022526E0,-4.9974995E1,-3.8312428E1,1.7171026E1,-4.678016E0,1.3764195E1,1.6044582E1,4.850183E1,-9.7032404E-1,1.15858135E1,-1.1329922E1,3.3603008E0,-6.0037714E-1,-1.1665748E0],"categories":[],"categories_nodes":[],"categories_segments":[],"categories_sizes":[],"default_left":[0,0,0,0,0,0,0,0,0,0,0,0,0,0,0,0,0,0,0,0,0,0,0,0,0,0,0,0,0],"id":21,"left_children":[1,3,5,7,9,11,13,-1,-1,15,17,19,21,23,-1,-1,-1,25,-1,27,-1,-1,-1,-1,-1,-1,-1,-1,-1],"loss_changes":[6.028553E5,2.4254444E5,3.0524675E5,1.28623875E5,1.7320136E5,2.5266881E5,3.06549E5,0E0,0E0,1.826591E5,1.072325E5,3.7167594E4,1.11471E5,1.6822174E4,0E0,0E0,0E0,3.7560293E4,0E0,1.969101E1,0E0,0E0,0E0,0E0,0E0,0E0,0E0,0E0,0E0],"parents":[2147483647,0,0,1,1,2,2,3,3,4,4,5,5,6,6,9,9,10,10,11,11,12,12,13,13,17,17,19,19],"right_children":[2,4,6,8,10,12,14,-1,-1,16,18,20,22,24,-1,-1,-1,26,-1,28,-1,-1,-1,-1,-1,-1,-1,-1,-1],"split_conditions":[2.1E1,3E0,1.0786517E0,9.6791446E-1,9.255319E-1,9.364202E-1,9.3582886E-1,-1.8959572E1,-5.236695E1,9.9124247E-1,1E0,4E0,9.230769E-1,4E0,-3.959698E1,-9.022526E0,-4.9974995E1,1.0179105E0,1.7171026E1,8.707865E-1,1.3764195E1,1.6044582E1,4.850183E1,-9.7032404E-1,1.15858135E1,-1.1329922E1,3.3603008E0,-6.0037714E-1,-1.1665748E0],"split_indices":[9,9,6,5,6,5,5,0,0,5,2,7,6,7,0,0,0,5,0,6,0,0,0,0,0,0,0,0,0],"split_type":[0,0,0,0,0,0,0,0,0,0,0,0,0,0,0,0,0,0,0,0,0,0,0,0,0,0,0,0,0],"sum_hessian":[1.53E2,8.2E1,7.1E1,2E1,6.2E1,4.6E1,2.5E1,1.1E1,9E0,1.8E1,4.4E1,2.7E1,1.9E1,1.7E1,8E0,1.1E1,7E0,3.6E1,8E0,1.5E1,1.2E1,8E0,1.1E1,7E0,1E1,2.7E1,9E0,7E0,8E0],"tree_param":{"num_deleted":"0","num_feature":"10","num_nodes":"29","size_leaf_vector":"1"}},{"base_weights":[-3.6944237E0,-1.030585E2,1.626131E1,-3.1718704E1,2.265422E0,-3.0200083E0,1.11819885E2,2.7899626E1,-6.427073E1,-5.973464E0,4.4658894E1,-1.2598099E1,1.3717087E2,-8.3695376E-1,-5.1197773E1,-2.4631998E1,3.2907987E0,-3.6901085E0,4.6406933E1,-9.5255785E0,7.915733E0],"categories":[],"categories_nodes":[],"categories_segments":[],"categories_sizes":[],"default_left":[0,0,0,0,0,0,0,0,0,0,0,0,0,0,0,0,0,0,0,0,0],"id":22,"left_children":[1,3,5,-1,-1,7,9,11,13,-1,-1,15,17,19,-1,-1,-1,-1,-1,-1,-1],"loss_changes":[2.9169622E5,1.5734703E5,2.2609255E5,0E0,0E0,1.9538486E5,3.2936862E5,3.0460806E5,4.20656E5,0E0,0E0,1.6374581E5,2.7715747E5,5.1433883E4,0E0,0E0,0E0,0E0,0E0,0E0,0E0],"parents":[2147483647,0,0,1,1,2,2,5,5,6,6,7,7,8,8,11,11,12,12,13,13],"right_children":[2,4,6,-1,-1,8,10,12,14,-1,-1,16,18,20,-1,-1,-1,-1,-1,-1,-1],"split_conditions":[5E0,4.36E1,1E0,-3.1718704E1,2.265422E0,1.0786517E0,7.638889E-1,6E1,5.35E1,-5.973464E0,4.4658894E1,9.0425533E-1,8.988764E-1,4.36E1,-5.1197773E1,-2.4631998E1,3.2907987E0,-3.6901085E0,4.6406933E1,-9.5255785E0,7.915733E0],"split_indices":[9,0,2,0,0,6,6,9,0,0,0,6,6,0,0,0,0,0,0,0,0],"split_type":[0,0,0,0,0,0,0,0,0,0,0,0,0,0,0,0,0,0,0,0,0],"sum_hessian":[1.46E2,2.4E1,1.22E2,1.6E1,8E0,1.02E2,2E1,6.8E1,3.4E1,9E0,1.1E1,5E1,1.8E1,2.6E1,8E0,1E1,4E1,7E0,1.1E1,1.2E1,1.4E1],"tree_param":{"num_deleted":"0","num_feature":"10","num_nodes":"21","size_leaf_vector":"1"}},{"base_weights":[-2.4296184E0,3.0954683E0,-2.1617369E1,2.6281122E1,-1.9800398E1,1.0284171E1,1.6135738E1,-3.228754E1,7.476283E0,-2.4665485E1,4.1621128E1,-1.7394644E1,-5.9618725E1,7.247323E0,-9.043045E0,2.8887227E0,-1.2475685E1,1.7545507E1,4.897496E0,-9.619819E0,-1.3344358E0,-6.7656226E0,-1.8176619E1],"categories":[],"categories_nodes":[],"categories_segments":[],"categories_sizes":[],"default_left":[0,0,0,0,0,0,0,0,0,0,0,0,0,0,0,0,0,0,0,0,0,0,0],"id":23,"left_children":[1,3,-1,5,7,-1,9,11,13,15,17,19,21,-1,-1,-1,-1,-1,-1,-1,-1,-1,-1],"loss_changes":[8.928333E4,7.7604805E4,0E0,1.8018965E4,2.5213568E4,0E0,5.5311293E4,1.997402E4,3.67471E4,3.0923912E4,2.4464113E4,1.0869483E4,1.2346715E4,0E0,0E0,0E0,0E0,0E0,0E0,0E0,0E0,0E0,0E0],"parents":[2147483647,0,0,1,1,3,3,4,4,6,6,7,7,8,8,9,9,10,10,11,11,12,12],"right_children":[2,4,-1,6,8,-1,10,12,14,16,18,20,22,-1,-1,-1,-1,-1,-1,-1,-1,-1,-1],"split_conditions":[3.652764E1,8.274E1,-2.1617369E1,8.478153E0,2.3584E1,1.0284171E1,1.137687E1,1.356453E1,2.4342E1,1.006E1,1.275351E1,1.2412E1,4E0,7.247323E0,-9.043045E0,2.8887227E0,-1.2475685E1,1.7545507E1,4.897496E0,-9.619819E0,-1.3344358E0,-6.7656226E0,-1.8176619E1],"split_indices":[8,1,0,8,8,0,8,8,8,8,8,8,7,0,0,0,0,0,0,0,0,0,0],"split_type":[0,0,0,0,0,0,0,0,0,0,0,0,0,0,0,0,0,0,0,0,0,0,0],"sum_hessian":[1.52E2,1.45E2,7E0,7.2E1,7.3E1,2E1,5.2E1,5E1,2.3E1,2E1,3.2E1,3.3E1,1.7E1,1.5E1,8E0,1E1,1E1,8E0,2.4E1,8E0,2.5E1,1E1,7E0],"tree_param":{"num_deleted":"0","num_feature":"10","num_nodes":"23","size_leaf_vector":"1"}},{"base_weights":[-1.393389E0,-8.324881E0,2.8673178E1,2.9751987E0,-4.2327267E1,4.274918E1,-1.3782944E1,1.2287687E1,-2.5364576E1,2.747518E1,1.6706781E1,-5.5005045E0,-4.299481E1,-2.538566E1,7.198479E1,9.526317E0,-2.9119185E-1,-7.1563582E0,2.1931958E0,-1.5422656E1,-2.5760233E0,6.653362E0,2.4060633E1],"categories":[],"categories_nodes":[],"categories_segments":[],"categories_sizes":[],"default_left":[0,0,0,0,0,0,0,0,0,0,0,0,0,0,0,0,0,0,0,0,0,0,0],"id":24,"left_children":[1,3,-1,5,7,9,11,13,-1,-1,15,17,19,-1,21,-1,-1,-1,-1,-1,-1,-1,-1],"loss_changes":[1.6687878E5,6.101439E4,0E0,8.007148E4,1.8367806E5,8.6352266E4,2.0326695E4,2.099276E5,0E0,0E0,1.6105631E4,3.3443938E4,1.8514953E4,0E0,3.0524648E4,0E0,0E0,0E0,0E0,0E0,0E0,0E0,0E0],"parents":[2147483647,0,0,1,1,3,3,4,4,5,5,6,6,7,7,10,10,11,11,12,12,14,14],"right_children":[2,4,-1,6,8,10,12,14,-1,-1,16,18,20,-1,22,-1,-1,-1,-1,-1,-1,-1,-1],"split_conditions":[1.0670391E0,1E0,2.8673178E1,8.274E1,1E0,8.5393256E-1,9.343284E-1,9.230769E-1,-2.5364576E1,2.747518E1,1.1235955E0,9.037433E-1,9.6791446E-1,-2.538566E1,9.6629214E-1,9.526317E0,-2.9119185E-1,-7.1563582E0,2.1931958E0,-1.5422656E1,-2.5760233E0,6.653362E0,2.4060633E1],"split_indices":[5,5,0,1,6,6,5,6,0,0,6,5,5,0,6,0,0,0,0,0,0,0,0],"split_type":[0,0,0,0,0,0,0,0,0,0,0,0,0,0,0,0,0,0,0,0,0,0,0],"sum_hessian":[1.65E2,1.58E2,7E0,1.19E2,3.9E1,3.5E1,8.4E1,2.4E1,1.5E1,7E0,2.8E1,6.6E1,1.8E1,7E0,1.7E1,1E1,1.8E1,2.3E1,4.3E1,8E0,1E1,1E1,7E0],"tree_param":{"num_deleted":"0","num_feature":"10","num_nodes":"23","size_leaf_vector":"1"}},{"base_weights":[3.1724167E0,-1.3445639E2,2.9690952E1,-4.539899E1,-7.103027E0,1.3487505E2,8.210736E0,1.0342849E1,3.8362606E1,-2.5537985E1,1.0536551E2,-8.384649E1,-1.0078176E1,4.5418785E1,2.8459806E1,-2.0990438E1,-1.0113439E1,8.177847E0,-8.744748E0,1.6421568E1,-4.2757263E0],"categories":[],"categories_nodes":[],"categories_segments":[],"categories_sizes":[],"default_left":[0,0,0,0,0,0,0,0,0,0,0,0,0,0,0,0,0,0,0,0,0],"id":25,"left_children":[1,3,5,-1,-1,7,9,-1,-1,11,13,15,17,-1,19,-1,-1,-1,-1,-1,-1],"loss_changes":[5.5569194E5,2.203976E5,2.8763206E5,0E0,0E0,9.632447E4,3.5113988E5,0E0,0E0,7.1247484E4,2.5450253E5,8.475266E3,1.1013571E5,0E0,4.8110934E4,0E0,0E0,0E0,0E0,0E0,0E0],"parents":[2147483647,0,0,1,1,2,2,5,5,6,6,9,9,10,10,11,11,12,12,14,14],"right_children":[2,4,6,-1,-1,8,10,-1,-1,12,14,16,18,-1,20,-1,-1,-1,-1,-1,-1],"split_conditions":[5E0,1.2608E1,5.11E1,-4.539899E1,-7.103027E0,1E0,6E1,1.0342849E1,3.8362606E1,1.129601E1,1.2608E1,9E0,1.515134E1,4.5418785E1,1.909018E1,-2.0990438E1,-1.0113439E1,8.177847E0,-8.744748E0,1.6421568E1,-4.2757263E0],"split_indices":[9,8,1,0,0,2,9,0,0,8,8,7,8,0,8,0,0,0,0,0,0],"split_type":[0,0,0,0,0,0,0,0,0,0,0,0,0,0,0,0,0,0,0,0,0],"sum_hessian":[1.51E2,2.4E1,1.27E2,1.2E1,1.2E1,2.1E1,1.06E2,9E0,1.2E1,7.9E1,2.7E1,1.6E1,6.3E1,1E1,1.7E1,9E0,7E0,2.5E1,3.8E1,8E0,9E0],"tree_param":{"num_deleted":"0","num_feature":"10","num_nodes":"21","size_leaf_vector":"1"}},{"base_weights":[3.1469748E0,1.924514E1,-3.9875994E0,3.6839277E-1,-1.5288866E1,1.3449269E1,-1.48763075E1,-4.967747E0,6.4553665E1,-9.8546326E-1,-5.668058E1,2.9729624E0,-3.8798606E0,8.528242E0,1.8430845E1,-3.0487049E0,5.753753E0,-6.411636E0,-1.5469706E1],"categories":[],"categories_nodes":[],"categories_segments":[],"categories_sizes":[],"default_left":[0,0,0,0,0,0,0,0,0,0,0,0,0,0,0,0,0,0,0],"id":26,"left_children":[1,-1,3,5,-1,7,9,11,13,15,17,-1,-1,-1,-1,-1,-1,-1,-1],"loss_changes":[1.0820915E5,0E0,4.786503E4,2.8755902E4,0E0,7.32288E4,3.8640883E4,1.6658986E4,1.0101047E4,2.1729549E4,6.9598516E3,0E0,0E0,0E0,0E0,0E0,0E0,0E0,0E0],"parents":[2147483647,0,0,2,2,3,3,5,5,6,6,7,7,8,8,9,9,10,10],"right_children":[2,-1,4,6,-1,8,10,12,14,16,18,-1,-1,-1,-1,-1,-1,-1,-1],"split_conditions":[2.85E1,1.924514E1,3.652764E1,9.3582886E-1,-1.5288866E1,9.2743605E-1,7E0,1.515134E1,7E0,5.4E1,8.478153E0,2.9729624E0,-3.8798606E0,8.528242E0,1.8430845E1,-3.0487049E0,5.753753E0,-6.411636E0,-1.5469706E1],"split_indices":[0,0,8,5,0,5,7,8,7,0,8,0,0,0,0,0,0,0,0],"split_type":[0,0,0,0,0,0,0,0,0,0,0,0,0,0,0,0,0,0,0],"sum_hessian":[1.62E2,1.1E1,1.51E2,1.43E2,8E0,7.7E1,6.6E1,5.7E1,2E1,5E1,1.6E1,2.4E1,3.3E1,1.2E1,8E0,3.4E1,1.6E1,8E0,8E0],"tree_param":{"num_deleted":"0","num_feature":"10","num_nodes":"19","size_leaf_vector":"1"}},{"base_weights":[-1.0995599E0,-4.27463E1,4.369467E1,-1.125301E2,-2.0441513E1,1.6989491E2,1.5207775E1,-4.2869617E1,3.5066197E0,3.3080257E1,-4.4334694E1,1.7089409E1,4.8186E1,6.0839626E1,-9.374982E1,3.6869073E0,-6.816963E1,2.230665E1,5.1362713E1,-1.9875469E0,-4.5060024E1,-1.9118914E1,-3.4053376E0,-6.6345553E0,8.344424E0],"categories":[],"categories_nodes":[],"categories_segments":[],"categories_sizes":[],"default_left":[0,0,0,0,0,0,0,0,0,0,0,0,0,0,0,0,0,0,0,0,0,0,0,0,0],"id":27,"left_children":[1,3,5,7,9,11,13,-1,-1,-1,15,-1,-1,17,19,-1,21,23,-1,-1,-1,-1,-1,-1,-1],"loss_changes":[3.0818753E5,1.3185731E5,2.8461594E5,2.75056E5,2.9568844E5,7.522991E4,3.2958125E5,0E0,0E0,0E0,8.842553E4,0E0,0E0,3.484608E5,2.1475655E5,0E0,5.877378E4,4.348592E4,0E0,0E0,0E0,0E0,0E0,0E0,0E0],"parents":[2147483647,0,0,1,1,2,2,3,3,4,4,5,5,6,6,10,10,13,13,14,14,16,16,17,17],"right_children":[2,4,6,8,10,12,14,-1,-1,-1,16,-1,-1,18,20,-1,22,24,-1,-1,-1,-1,-1,-1,-1],"split_conditions":[2.1E1,3E0,1E0,4.36E1,2.85E1,9.6791446E-1,1.0192307E0,-4.2869617E1,3.5066197E0,3.3080257E1,4.36E1,1.7089409E1,4.8186E1,1.0614525E0,4.36E1,3.6869073E0,1.0179105E0,9.037433E-1,5.1362713E1,-1.9875469E0,-4.5060024E1,-1.9118914E1,-3.4053376E0,-6.6345553E0,8.344424E0],"split_indices":[9,9,3,0,0,5,6,0,0,0,0,0,0,5,0,0,5,5,0,0,0,0,0,0,0],"split_type":[0,0,0,0,0,0,0,0,0,0,0,0,0,0,0,0,0,0,0,0,0,0,0,0,0],"sum_hessian":[1.64E2,8.5E1,7.9E1,2E1,6.5E1,1.4E1,6.5E1,1.1E1,9E0,7E0,5.8E1,7E0,7E0,4.6E1,1.9E1,1.6E1,4.2E1,3.9E1,7E0,1.2E1,7E0,2.7E1,1.5E1,1E1,2.9E1],"tree_param":{"num_deleted":"0","num_feature":"10","num_nodes":"25","size_leaf_vector":"1"}},{"base_weights":[2.2064457E0,-3.6768135E1,4.3098824E1,-1.3568929E2,-1.4279186E1,6.979525E1,-1.5892611E1,-3.104511E1,-2.0574026E1,3.6611942E1,-4.329814E1,9.26706E1,1.7478713E0,-8.722285E0,2.95658E0,-3.3589795E0,6.146033E1,-9.026769E1,-1.7666254E1,4.582307E1,5.078496E1,-9.124194E0,9.795745E0,2.1802687E1,3.0038822E0,-3.1021545E1,-5.3338885E0,1.029182E1,-8.088587E0,2.145655E1,-1.5096862E0],"categories":[],"categories_nodes":[],"categories_segments":[],"categories_sizes":[],"default_left":[0,0,0,0,0,0,0,0,0,0,0,0,0,0,0,0,0,0,0,0,0,0,0,0,0,0,0,0,0,0,0],"id":28,"left_children":[1,3,5,7,9,11,13,-1,-1,15,17,19,21,-1,-1,-1,23,25,27,-1,29,-1,-1,-1,-1,-1,-1,-1,-1,-1,-1],"loss_changes":[2.6328422E5,1.8704138E5,1.2759931E5,4.2134375E2,1.0373693E5,8.645016E4,2.215421E4,0E0,0E0,3.459242E4,5.2737945E4,2.3076578E5,3.4004824E4,0E0,0E0,0E0,3.7885617E4,6.1847953E4,4.7852285E4,0E0,1.0792596E5,0E0,0E0,0E0,0E0,0E0,0E0,0E0,0E0,0E0,0E0],"parents":[2147483647,0,0,1,1,2,2,3,3,4,4,5,5,6,6,9,9,10,10,11,11,12,12,16,16,17,17,18,18,20,20],"right_children":[2,4,6,8,10,12,14,-1,-1,16,18,20,22,-1,-1,-1,24,26,28,-1,30,-1,-1,-1,-1,-1,-1,-1,-1,-1,-1],"split_conditions":[2.1E1,1.0229E1,1.909018E1,1.011236E0,9.787234E-1,1.1235955E0,6E1,-3.104511E1,-2.0574026E1,9.4678646E-1,7E0,8.032423E0,1.25E0,-8.722285E0,2.95658E0,-3.3589795E0,1.0223464E0,1.2608E1,1.2608E1,4.582307E1,1E0,-9.124194E0,9.795745E0,2.1802687E1,3.0038822E0,-3.1021545E1,-5.3338885E0,1.029182E1,-8.088587E0,2.145655E1,-1.5096862E0],"split_indices":[9,8,8,6,6,6,9,0,0,5,9,8,6,0,0,0,5,8,8,0,6,0,0,0,0,0,0,0,0,0,0],"split_type":[0,0,0,0,0,0,0,0,0,0,0,0,0,0,0,0,0,0,0,0,0,0,0,0,0,0,0,0,0,0,0],"sum_hessian":[1.64E2,8.4E1,8E1,1.5E1,6.9E1,5.5E1,2.5E1,8E0,7E0,2.5E1,4.4E1,4.1E1,1.4E1,1.3E1,1.2E1,8E0,1.7E1,1.5E1,2.9E1,9E0,3.2E1,7E0,7E0,8E0,9E0,7E0,8E0,7E0,2.2E1,1.6E1,1.6E1],"tree_param":{"num_deleted":"0","num_feature":"10","num_nodes":"31","size_leaf_vector":"1"}},{"base_weights":[-4.5790496E-1,-4.3606186E1,2.5797724E1,-1.05967E2,-1.5764054E1,-2.5353E1,3.726739E1,-3.7919144E1,-9.138945E0,8.804356E0,-3.0350752E1,4.1627536E0,-1.2274797E1,8.477861E1,1.8876217E1,-1.1846824E1,-1.1680068E1,2.4513745E0,3.0583052E1,4.995787E1,-5.1248646E1,-8.506181E0,9.225134E-1,-7.0164475E0,1.974083E1,9.615833E0,-3.4020092E1],"categories":[],"categories_nodes":[],"categories_segments":[],"categories_sizes":[],"default_left":[0,0,0,0,0,0,0,0,0,0,0,0,0,0,0,0,0,0,0,0,0,0,0,0,0,0,0],"id":29,"left_children":[1,3,5,7,9,11,13,-1,-1,-1,15,-1,-1,17,19,21,-1,-1,-1,23,25,-1,-1,-1,-1,-1,-1],"loss_changes":[1.8148345E5,1.0421495E5,5.900042E4,8.855506E4,3.7952168E4,3.1697742E4,7.034084E4,0E0,0E0,0E0,1.7543234E4,0E0,0E0,1.1055081E5,1.3144011E5,1.1026597E4,0E0,0E0,0E0,1.7452581E5,2.2448538E5,0E0,0E0,0E0,0E0,0E0,0E0],"parents":[2147483647,0,0,1,1,2,2,3,3,4,4,5,5,6,6,10,10,13,13,14,14,15,15,19,19,20,20],"right_children":[2,4,6,8,10,12,14,-1,-1,-1,16,-1,-1,18,20,22,-1,-1,-1,24,26,-1,-1,-1,-1,-1,-1],"split_conditions":[1.4E1,9.6276593E-1,9.037433E-1,1.1466E1,1.003308E1,1.275351E1,1E0,-3.7919144E1,-9.138945E0,8.804356E0,9.3582886E-1,4.1627536E0,-1.2274797E1,2.1E1,1.0192307E0,1.4705E1,-1.1680068E1,2.4513745E0,3.0583052E1,9.0425533E-1,9.144385E-1,-8.506181E0,9.225134E-1,-7.0164475E0,1.974083E1,9.615833E0,-3.4020092E1],"split_indices":[9,6,5,8,8,8,3,0,0,0,5,0,0,9,6,8,0,0,0,6,5,0,0,0,0,0,0],"split_type":[0,0,0,0,0,0,0,0,0,0,0,0,0,0,0,0,0,0,0,0,0,0,0,0,0,0,0],"sum_hessian":[1.59E2,6E1,9.9E1,1.8E1,4.2E1,1.8E1,8.1E1,7E0,1.1E1,8E0,3.4E1,8E0,1E1,2.2E1,5.9E1,2.1E1,1.3E1,1.1E1,1.1E1,4.1E1,1.8E1,7E0,1.4E1,1.5E1,2.6E1,1E1,8E0],"tree_param":{"num_deleted":"0","num_feature":"10","num_nodes":"27","size_leaf_vector":"1"}},{"base_weights":[4.025212E0,1.9092772E1,-4.0401367E1,3.9811054E1,6.5090976E0,-4.2177433E1,8.73692E-2,-2.6207094E1,4.0983555E1,-2.5291012E1,3.2415142E1,-7.926816E1,-2.3144381E-1,3.8121826E1,8.225806E0,-8.959774E0,1.03609316E-1,9.108598E0,3.3456407E0,-2.1654905E1,-5.7474527E0,9.346871E0,-6.25415E0,-7.052388E0,5.762714E0],"categories":[],"categories_nodes":[],"categories_segments":[],"categories_sizes":[],"default_left":[0,0,0,0,0,0,0,0,0,0,0,0,0,0,0,0,0,0,0,0,0,0,0,0,0],"id":30,"left_children":[1,3,5,-1,7,-1,9,11,13,15,17,19,21,-1,23,-1,-1,-1,-1,-1,-1,-1,-1,-1,-1],"loss_changes":[1.0462149E5,2.6327372E5,2.7336016E5,0E0,1.2425932E5,0E0,2.7237791E4,7.800052E4,2.6177412E5,9.378642E3,2.5495508E3,2.5395453E4,5.7147387E4,0E0,4.0540684E4,0E0,0E0,0E0,0E0,0E0,0E0,0E0,0E0,0E0,0E0],"parents":[2147483647,0,0,1,1,2,2,4,4,6,6,7,7,8,8,9,9,10,10,11,11,12,12,14,14],"right_children":[2,4,6,-1,8,-1,10,12,14,16,18,20,22,-1,24,-1,-1,-1,-1,-1,-1,-1,-1,-1,-1],"split_conditions":[1.1235955E0,2.85E1,6.5E1,3.9811054E1,2.1E1,-4.2177433E1,4.36E1,1.129601E1,8.478153E0,1.261396E1,1.25E0,1.011236E0,1.515134E1,3.8121826E1,9.6629214E-1,-8.959774E0,1.03609316E-1,9.108598E0,3.3456407E0,-2.1654905E1,-5.7474527E0,9.346871E0,-6.25415E0,-7.052388E0,5.762714E0],"split_indices":[6,0,1,0,9,0,0,8,8,8,6,6,8,0,6,0,0,0,0,0,0,0,0,0,0],"split_type":[0,0,0,0,0,0,0,0,0,0,0,0,0,0,0,0,0,0,0,0,0,0,0,0,0],"sum_hessian":[1.55E2,1.16E2,3.9E1,7E0,1.09E2,7E0,3.2E1,5.6E1,5.3E1,1.8E1,1.4E1,1.8E1,3.8E1,9E0,4.4E1,1E1,8E0,7E0,7E0,1.1E1,7E0,1.5E1,2.3E1,1.4E1,3E1],"tree_param":{"num_deleted":"0","num_feature":"10","num_nodes":"25","size_leaf_vector":"1"}},{"base_weights":[1.8829305E0,-3.1491114E1,1.3962901E1,-8.364065E0,-2.746739E1,2.3656048E1,1.4366121E0,1.0139861E1,-2.9909758E1,9.371647E1,-1.6904104E1,-3.726981E-1,5.847928E0,-2.985639E0,-8.560919E0,3.1040516E1,3.7084885E0,-5.998711E1,-8.33635E0,-7.916475E0,-1.5131205E1,-6.5714426E0,3.2770175E-1],"categories":[],"categories_nodes":[],"categories_segments":[],"categories_sizes":[],"default_left":[0,0,0,0,0,0,0,0,0,0,0,0,0,0,0,0,0,0,0,0,0,0,0],"id":31,"left_children":[1,3,5,7,-1,-1,9,11,13,15,17,-1,-1,-1,-1,-1,-1,19,21,-1,-1,-1,-1],"loss_changes":[6.4607754E4,1.0359139E5,1.5356703E5,1.4374973E4,0E0,0E0,1.7967625E5,4.526215E3,2.8234688E3,7.962328E4,3.2404395E4,0E0,0E0,0E0,0E0,0E0,0E0,2.871129E3,1.8278875E4,0E0,0E0,0E0,0E0],"parents":[2147483647,0,0,1,1,2,2,3,3,6,6,7,7,8,8,9,9,10,10,17,17,18,18],"right_children":[2,4,6,8,-1,-1,10,12,14,16,18,-1,-1,-1,-1,-1,-1,20,22,-1,-1,-1,-1],"split_conditions":[9.255319E-1,5.4E1,8.478153E0,4.36E1,-2.746739E1,2.3656048E1,1E0,2.3584E1,5.052E1,1.939E1,6.5E1,-3.726981E-1,5.847928E0,-2.985639E0,-8.560919E0,3.1040516E1,3.7084885E0,1.1283E1,1.2608E1,-7.916475E0,-1.5131205E1,-6.5714426E0,3.2770175E-1],"split_indices":[6,0,8,0,0,0,6,8,0,8,1,0,0,0,0,0,0,8,8,0,0,0,0],"split_type":[0,0,0,0,0,0,0,0,0,0,0,0,0,0,0,0,0,0,0,0,0,0,0],"sum_hessian":[1.59E2,4.2E1,1.17E2,3.5E1,7E0,1.2E1,1.05E2,1.9E1,1.6E1,1.7E1,8.8E1,1.2E1,7E0,8E0,8E0,9E0,8E0,1.4E1,7.4E1,7E0,7E0,2.1E1,5.3E1],"tree_param":{"num_deleted":"0","num_feature":"10","num_nodes":"23","size_leaf_vector":"1"}},{"base_weights":[-2.9080632E0,-4.077765E1,1.0483223E1,7.725308E0,-8.3905716E1,-7.0911746E0,1.3836958E2,-3.658615E0,9.061258E0,-7.302509E0,-2.395613E1,6.2266097E0,-2.4318707E1,3.479102E1,1.8372032E1,1.8542608E1,-2.0104078E1,-3.466064E1,6.297622E0,-4.6649217E-3,1.1353522E1,-5.7368617E0,-8.5835904E-1,-2.219174E0,-1.218162E1],"categories":[],"categories_nodes":[],"categories_segments":[],"categories_sizes":[],"default_left":[0,0,0,0,0,0,0,0,0,0,0,0,0,0,0,0,0,0,0,0,0,0,0,0,0],"id":32,"left_children":[1,3,5,7,9,11,13,-1,-1,-1,-1,15,17,-1,-1,19,21,23,-1,-1,-1,-1,-1,-1,-1],"loss_changes":[8.271461E4,8.950124E4,2.716403E5,2.063988E4,3.580103E4,2.4548363E4,1.45761875E4,0E0,0E0,0E0,0E0,1.9875564E4,2.7550049E4,0E0,0E0,2.9523598E4,2.5853262E3,2.408771E4,0E0,0E0,0E0,0E0,0E0,0E0,0E0],"parents":[2147483647,0,0,1,1,2,2,3,3,4,4,5,5,6,6,11,11,12,12,15,15,16,16,17,17],"right_children":[2,4,6,8,10,12,14,-1,-1,-1,-1,16,18,-1,-1,20,22,24,-1,-1,-1,-1,-1,-1,-1],"split_conditions":[9.255319E-1,9.283582E-1,5.4E1,9.0909094E-1,5.11E1,9.3582886E-1,1E0,-3.658615E0,9.061258E0,-7.302509E0,-2.395613E1,1.25E0,1.0223464E0,3.479102E1,1.8372032E1,1.011236E0,4.36E1,4.36E1,6.297622E0,-4.6649217E-3,1.1353522E1,-5.7368617E0,-8.5835904E-1,-2.219174E0,-1.218162E1],"split_indices":[6,5,0,5,1,5,6,0,0,0,0,6,5,0,0,6,0,0,0,0,0,0,0,0,0],"split_type":[0,0,0,0,0,0,0,0,0,0,0,0,0,0,0,0,0,0,0,0,0,0,0,0,0],"sum_hessian":[1.62E2,4.2E1,1.2E2,2E1,2.2E1,1.06E2,1.4E1,1.2E1,8E0,1E1,1.2E1,6E1,4.6E1,7E0,7E0,4.1E1,1.9E1,3.9E1,7E0,2.8E1,1.3E1,1.2E1,7E0,2.1E1,1.8E1],"tree_param":{"num_deleted":"0","num_feature":"10","num_nodes":"25","size_leaf_vector":"1"}},{"base_weights":[-2.1530037E-1,-1.2668063E1,4.4949757E1,2.1741488E1,-3.5931683E1,-1.0973313E0,1.9378088E1,3.6576686E0,1.6590239E1,-2.0235537E1,-2.631659E1,5.235284E1,-4.5155495E1,-1.2336924E1,-1.5796997E1,-3.3475266E0,2.1088802E1,-1.7416222E1,-3.0702722E0,-5.55055E0,2.684512E0],"categories":[],"categories_nodes":[],"categories_segments":[],"categories_sizes":[],"default_left":[0,0,0,0,0,0,0,0,0,0,0,0,0,0,0,0,0,0,0,0,0],"id":33,"left_children":[1,3,5,7,9,-1,-1,11,-1,-1,13,15,17,19,-1,-1,-1,-1,-1,-1,-1],"loss_changes":[8.223143E4,9.220495E4,8.310153E4,5.1399734E4,4.1438367E4,0E0,0E0,8.841534E4,0E0,0E0,4.4034305E4,6.928548E4,2.2439668E4,1.9522746E4,0E0,0E0,0E0,0E0,0E0,0E0,0E0],"parents":[2147483647,0,0,1,1,2,2,3,3,4,4,7,7,10,10,11,11,12,12,13,13],"right_children":[2,4,6,8,10,-1,-1,12,-1,-1,14,16,18,20,-1,-1,-1,-1,-1,-1,-1],"split_conditions":[6E1,1E0,4E0,2.1E1,1E0,-1.0973313E0,1.9378088E1,5.052E1,1.6590239E1,-2.0235537E1,5.4E1,7E0,5.082E1,6E0,-1.5796997E1,-3.3475266E0,2.1088802E1,-1.7416222E1,-3.0702722E0,-5.55055E0,2.684512E0],"split_indices":[9,3,7,9,9,0,0,0,0,0,0,9,0,7,0,0,0,0,0,0,0],"split_type":[0,0,0,0,0,0,0,0,0,0,0,0,0,0,0,0,0,0,0,0,0],"sum_hessian":[1.45E2,1.14E2,3.1E1,4.6E1,6.8E1,1.6E1,1.5E1,3.6E1,1E1,8E0,6E1,1.8E1,1.8E1,4.8E1,1.2E1,8E0,1E1,7E0,1.1E1,3E1,1.8E1],"tree_param":{"num_deleted":"0","num_feature":"10","num_nodes":"21","size_leaf_vector":"1"}},{"base_weights":[-7.863958E0,-4.266551E0,-1.5232371E1,2.1512295E1,-1.0788797E1,1.1319842E0,9.16361E0,-3.5833916E1,-5.69292E0,-3.01553E0,-1.3483325E1,8.484762E0,-1.5215454E1,6.550174E0,-2.5293484E0,-8.711521E0,-4.0125188E-1],"categories":[],"categories_nodes":[],"categories_segments":[],"categories_sizes":[],"default_left":[0,0,0,0,0,0,0,0,0,0,0,0,0,0,0,0,0],"id":34,"left_children":[1,3,-1,5,7,-1,-1,9,11,-1,-1,13,15,-1,-1,-1,-1],"loss_changes":[3.7298137E4,2.4619854E4,0E0,1.1249399E4,1.4758891E4,0E0,0E0,1.2238676E4,1.3254188E4,0E0,0E0,2.0554578E4,2.1886059E4,0E0,0E0,0E0,0E0],"parents":[2147483647,0,0,1,1,3,3,4,4,7,7,8,8,11,11,12,12],"right_children":[2,4,-1,6,8,-1,-1,10,12,-1,-1,14,16,-1,-1,-1,-1],"split_conditions":[2.7985E1,1.006E1,-1.5232371E1,7E0,1.137687E1,1.1319842E0,9.16361E0,1.1283E1,1.4265E1,-3.01553E0,-1.3483325E1,9.92E1,1.9065E1,6.550174E0,-2.5293484E0,-8.711521E0,-4.0125188E-1],"split_indices":[8,8,0,7,8,0,0,8,8,0,0,1,8,0,0,0,0],"split_type":[0,0,0,0,0,0,0,0,0,0,0,0,0,0,0,0,0],"sum_hessian":[1.52E2,1.45E2,7E0,2.9E1,1.16E2,1.8E1,1.1E1,1.9E1,9.7E1,1.2E1,7E0,3.9E1,5.8E1,1.8E1,2.1E1,1.8E1,4E1],"tree_param":{"num_deleted":"0","num_feature":"10","num_nodes":"17","size_leaf_vector":"1"}},{"base_weights":[3.9788888E0,-5.552826E0,4.0629074E1,-3.5601543E1,8.738174E0,-9.389836E0,7.0254906E1,-2.487273E1,-1.1530532E1,1.6144745E1,6.928314E-1,1.016781E2,2.9602585E0,-1.6472479E1,1.757558E1,-1.3032625E1,7.7762527E0,2.8506525E1,9.484153E0,1.5638961E1,-2.1626124E0,8.527365E0,-2.6239285E0],"categories":[],"categories_nodes":[],"categories_segments":[],"categories_sizes":[],"default_left":[0,0,0,0,0,0,0,0,0,0,0,0,0,0,0,0,0,0,0,0,0,0,0],"id":35,"left_children":[1,3,5,7,9,-1,11,-1,13,-1,15,17,-1,-1,19,-1,21,-1,-1,-1,-1,-1,-1],"loss_changes":[5.519121E4,5.4122594E4,8.656231E4,8.58853E4,4.9541547E4,0E0,4.196325E4,0E0,6.807801E4,0E0,3.6503305E4,3.0524453E4,0E0,0E0,4.11205E4,0E0,5.1763695E4,0E0,0E0,0E0,0E0,0E0,0E0],"parents":[2147483647,0,0,1,1,2,2,3,3,4,4,6,6,8,8,10,10,11,11,14,14,16,16],"right_children":[2,4,6,8,10,-1,12,-1,14,-1,16,18,-1,-1,20,-1,22,-1,-1,-1,-1,-1,-1],"split_conditions":[6E1,1.137687E1,9.0425533E-1,9.255319E-1,1E0,-9.389836E0,1.909018E1,-2.487273E1,7E0,1.6144745E1,7.638889E-1,1.011236E0,2.9602585E0,-1.6472479E1,8.478153E0,-1.3032625E1,9.787234E-1,2.8506525E1,9.484153E0,1.5638961E1,-2.1626124E0,8.527365E0,-2.6239285E0],"split_indices":[9,8,6,6,9,0,8,0,9,0,6,6,0,0,8,0,6,0,0,0,0,0,0],"split_type":[0,0,0,0,0,0,0,0,0,0,0,0,0,0,0,0,0,0,0,0,0,0,0],"sum_hessian":[1.57E2,1.25E2,3.2E1,4E1,8.5E1,8E0,2.4E1,8E0,3.2E1,8E0,7.7E1,1.5E1,9E0,9E0,2.3E1,7E0,7E1,8E0,7E0,7E0,1.6E1,2.6E1,4.4E1],"tree_param":{"num_deleted":"0","num_feature":"10","num_nodes":"23","size_leaf_vector":"1"}},{"base_weights":[-9.35658E0,-3.544837E0,-2.5368196E1,-1.0963052E1,1.4898694E1,-4.2749915E0,-1.4763196E1,-6.708254E0,3.8092434E1,-1.1307987E1,1.261974E1,3.678281E0,-4.057447E0,1.21531315E1,2.2248104E0,-1.3414192E0,-9.217219E0],"categories":[],"categories_nodes":[],"categories_segments":[],"categories_sizes":[],"default_left":[0,0,0,0,0,0,0,0,0,0,0,0,0,0,0,0,0],"id":36,"left_children":[1,3,-1,5,7,9,-1,11,13,15,-1,-1,-1,-1,-1,-1,-1],"loss_changes":[1.1006893E5,2.1250078E4,0E0,4.6302938E4,2.2504426E4,4.80963E4,0E0,8.267402E3,1.2801961E4,1.447148E4,0E0,0E0,0E0,0E0,0E0,0E0,0E0],"parents":[2147483647,0,0,1,1,3,3,4,4,5,5,7,7,8,8,9,9],"right_children":[2,4,-1,6,8,10,-1,12,14,16,-1,-1,-1,-1,-1,-1,-1],"split_conditions":[1.0670391E0,1.1153846E0,-2.5368196E1,1.0344827E0,4.36E1,1.0291139E0,-1.4763196E1,1.1612903E0,1.275351E1,5.082E1,1.261974E1,3.678281E0,-4.057447E0,1.21531315E1,2.2248104E0,-1.3414192E0,-9.217219E0],"split_indices":[5,6,0,6,0,5,0,6,8,0,0,0,0,0,0,0,0],"split_type":[0,0,0,0,0,0,0,0,0,0,0,0,0,0,0,0,0],"sum_hessian":[1.61E2,1.54E2,7E0,1.1E2,4.4E1,1E2,1E1,2.3E1,2.1E1,9.1E1,9E0,8E0,1.5E1,1.1E1,1E1,8.1E1,1E1],"tree_param":{"num_deleted":"0","num_feature":"10","num_nodes":"17","size_leaf_vector":"1"}},{"base_weights":[-7.1998515E0,1.1974655E1,-2.4946524E1,-1.1923529E1,2.56098E1,1.6256508E0,-3.110586E1,7.938726E0,-8.288526E0,1.5996946E1,1.06152525E1,-1.2268281E1,-2.6653954E1,-1.1530377E0,3.4629624E0,2.6894293E1,-4.525253E0,3.2513E0,-3.4997272E1,2.9275098E0,1.1160466E1,-1.1363521E1,-5.0771375E0],"categories":[],"categories_nodes":[],"categories_segments":[],"categories_sizes":[],"default_left":[0,0,0,0,0,0,0,0,0,0,0,0,0,0,0,0,0,0,0,0,0,0,0],"id":37,"left_children":[1,3,5,7,9,-1,11,13,-1,15,-1,-1,17,-1,-1,19,-1,-1,21,-1,-1,-1,-1],"loss_changes":[5.4828797E4,2.5469582E4,1.7182578E4,1.6966031E4,1.2586506E4,0E0,8.522172E3,2.3213015E3,0E0,1.6190595E4,0E0,0E0,2.2753133E4,0E0,0E0,9.997736E3,0E0,0E0,1.0166273E4,0E0,0E0,0E0,0E0],"parents":[2147483647,0,0,1,1,2,2,3,3,4,4,6,6,7,7,9,9,12,12,15,15,18,18],"right_children":[2,4,6,8,10,-1,12,14,-1,16,-1,-1,18,-1,-1,20,-1,-1,22,-1,-1,-1,-1],"split_conditions":[9.3582886E-1,9.037433E-1,2.85E1,8.6316514E-1,4.36E1,1.6256508E0,9.6791446E-1,1.725954E1,-8.288526E0,9.144385E-1,1.06152525E1,-1.2268281E1,4.36E1,-1.1530377E0,3.4629624E0,9.0909094E-1,-4.525253E0,3.2513E0,1.0119402E0,2.9275098E0,1.1160466E1,-1.1363521E1,-5.0771375E0],"split_indices":[5,5,0,5,0,0,5,8,0,5,0,0,0,0,0,5,0,0,5,0,0,0,0],"split_type":[0,0,0,0,0,0,0,0,0,0,0,0,0,0,0,0,0,0,0,0,0,0,0],"sum_hessian":[1.6E2,7.7E1,8.3E1,2.8E1,4.9E1,1.3E1,7E1,1.7E1,1.1E1,3.7E1,1.2E1,8E0,6.2E1,7E0,1E1,2.9E1,8E0,1E1,5.2E1,2.1E1,8E0,1.5E1,3.7E1],"tree_param":{"num_deleted":"0","num_feature":"10","num_nodes":"23","size_leaf_vector":"1"}},{"base_weights":[-7.3491116E0,2.0732317E0,-3.4476677E1,-8.728963E0,8.366553E0,-5.7267937E1,5.3418827E0,3.075115E1,-3.751109E0,-2.5237167E0,-8.254185E1,-8.514933E0,1.056734E1,-1.5436909E1,3.0312304E1,-5.372473E0,-2.5197649E1,-5.741913E-1,-1.0939273E1,-5.960151E0,1.245714E1],"categories":[],"categories_nodes":[],"categories_segments":[],"categories_sizes":[],"default_left":[0,0,0,0,0,0,0,0,0,0,0,0,0,0,0,0,0,0,0,0,0],"id":38,"left_children":[1,3,5,-1,7,9,11,-1,13,-1,15,-1,-1,17,19,-1,-1,-1,-1,-1,-1],"loss_changes":[3.828143E4,3.2328459E4,3.521364E4,0E0,1.7405728E5,2.7135266E4,3.45762E4,0E0,3.674289E4,0E0,3.5706945E4,0E0,0E0,3.3748387E4,4.6473336E4,0E0,0E0,0E0,0E0,0E0,0E0],"parents":[2147483647,0,0,1,1,2,2,4,4,5,5,6,6,8,8,10,10,13,13,14,14],"right_children":[2,4,6,-1,8,10,12,-1,14,-1,16,-1,-1,18,20,-1,-1,-1,-1,-1,-1],"split_conditions":[1.1235955E0,3E0,1E0,-8.728963E0,4E1,4E0,2.1E1,3.075115E1,6E1,-2.5237167E0,1.4E1,-8.514933E0,1.056734E1,7E0,8.988764E-1,-5.372473E0,-2.5197649E1,-5.741913E-1,-1.0939273E1,-5.960151E0,1.245714E1],"split_indices":[6,9,4,0,1,7,9,0,9,0,9,0,0,7,6,0,0,0,0,0,0],"split_type":[0,0,0,0,0,0,0,0,0,0,0,0,0,0,0,0,0,0,0,0,0],"sum_hessian":[1.49E2,1.11E2,3.8E1,1.3E1,9.8E1,2.4E1,1.4E1,7E0,9.1E1,9E0,1.5E1,7E0,7E0,6.8E1,2.3E1,7E0,8E0,5.2E1,1.6E1,8E0,1.5E1],"tree_param":{"num_deleted":"0","num_feature":"10","num_nodes":"21","size_leaf_vector":"1"}},{"base_weights":[7.681392E0,-2.2981092E1,2.0956259E1,-1.9058413E1,3.1387746E-1,4.56872E1,7.9747577E0,3.507557E1,-1.9929121E1,6.3691265E1,4.0777588E-1,-1.01377904E-1,1.5410995E1,9.627089E1,-8.472067E0,2.0702316E1,3.9799797E1,-7.5773954E0,2.0546082E1,2.7895548E1,1.0274306E1,2.666973E0,1.4713864E1,-2.8980267E0,1.8232489E0,1.1617431E1,-6.687179E0],"categories":[],"categories_nodes":[],"categories_segments":[],"categories_sizes":[],"default_left":[0,0,0,0,0,0,0,0,0,0,0,0,0,0,0,0,0,0,0,0,0,0,0,0,0,0,0],"id":39,"left_children":[1,3,5,-1,7,9,11,13,-1,15,-1,17,-1,19,-1,-1,21,23,25,-1,-1,-1,-1,-1,-1,-1,-1],"loss_changes":[6.4031492E4,8.019928E4,3.4967895E4,0E0,1.2927333E5,2.9469938E4,4.0508316E4,1.3323536E5,0E0,2.2834484E4,0E0,1.0219479E4,0E0,2.5964266E4,0E0,0E0,1.5140645E4,5.6876367E3,3.6832445E4,0E0,0E0,0E0,0E0,0E0,0E0,0E0,0E0],"parents":[2147483647,0,0,1,1,2,2,4,4,5,5,6,6,7,7,9,9,11,11,13,13,16,16,17,17,18,18],"right_children":[2,4,6,-1,8,10,12,14,-1,16,-1,18,-1,20,-1,-1,22,24,26,-1,-1,-1,-1,-1,-1,-1,-1],"split_conditions":[1.1466E1,9.255319E-1,1.515134E1,-1.9058413E1,1.1235955E0,1.1612903E0,5.4E1,1.003308E1,-1.9929121E1,1.2608E1,4.0777588E-1,2.56538E1,1.5410995E1,8.032423E0,-8.472067E0,2.0702316E1,1E0,1.0786517E0,2.7985E1,2.7895548E1,1.0274306E1,2.666973E0,1.4713864E1,-2.8980267E0,1.8232489E0,1.1617431E1,-6.687179E0],"split_indices":[8,6,8,0,6,6,0,8,0,8,0,8,0,8,0,0,2,6,8,0,0,0,0,0,0,0,0],"split_type":[0,0,0,0,0,0,0,0,0,0,0,0,0,0,0,0,0,0,0,0,0,0,0,0,0,0,0],"sum_hessian":[1.56E2,4.7E1,1.09E2,1.1E1,3.6E1,3.7E1,7.2E1,2.7E1,9E0,2.6E1,1.1E1,6.5E1,7E0,1.5E1,1.2E1,9E0,1.7E1,4.8E1,1.7E1,7E0,8E0,1E1,7E0,3.4E1,1.4E1,1E1,7E0],"tree_param":{"num_deleted":"0","num_feature":"10","num_nodes":"27","size_leaf_vector":"1"}},{"base_weights":[2.9025974E0,5.818012E0,1.4345914E0,-6.947112E0,8.984011E0,-1.0709129E1,3.760465E0,-8.84198E0,1.7415323E1,-4.708473E0,-7.0499063E0,-8.20492E0,3.8590856E0,3.8160908E1,-2.8193855E-1,-3.5588443E0,1.0096977E0,4.4280906E0,9.515776E0,2.4888322E0,-4.999567E0],"categories":[],"categories_nodes":[],"categories_segments":[],"categories_sizes":[],"default_left":[0,0,0,0,0,0,0,0,0,0,0,0,0,0,0,0,0,0,0,0,0],"id":40,"left_children":[1,-1,3,5,7,9,-1,11,13,15,-1,-1,-1,17,19,-1,-1,-1,-1,-1,-1],"loss_changes":[6.2258506E3,0E0,9.820071E3,7.2504336E3,1.2356584E4,9.413315E3,0E0,2.4562193E4,2.0419441E4,6.769718E3,0E0,0E0,0E0,3.2304844E3,9.811478E3,0E0,0E0,0E0,0E0,0E0,0E0],"parents":[2147483647,0,0,2,2,3,3,4,4,5,5,7,7,8,8,9,9,13,13,14,14],"right_children":[2,-1,4,6,8,10,-1,12,14,16,-1,-1,-1,18,20,-1,-1,-1,-1,-1,-1],"split_conditions":[8.5561496E-1,5.818012E0,9.364202E-1,5.052E1,4.4E1,9.144385E-1,3.760465E0,1.0119402E0,5.082E1,9.037433E-1,-7.0499063E0,-8.20492E0,3.8590856E0,9.786096E-1,7E0,-3.5588443E0,1.0096977E0,4.4280906E0,9.515776E0,2.4888322E0,-4.999567E0],"split_indices":[5,0,5,0,1,5,0,5,0,5,0,0,0,5,7,0,0,0,0,0,0],"split_type":[0,0,0,0,0,0,0,0,0,0,0,0,0,0,0,0,0,0,0,0,0],"sum_hessian":[1.62E2,8E0,1.54E2,7.3E1,8.1E1,6.4E1,9E0,2.6E1,5.5E1,5.2E1,1.2E1,1.2E1,1.4E1,2.5E1,3E1,2.2E1,3E1,1E1,1.5E1,2E1,1E1],"tree_param":{"num_deleted":"0","num_feature":"10","num_nodes":"21","size_leaf_vector":"1"}},{"base_weights":[8.791284E-1,7.3736606E0,-1.6136786E1,2.5872416E1,-1.6016431E0,1.0950872E1,1.6850485E1,3.14422E0,-8.235847E0,9.613006E0,-4.8858924E0,9.827934E0,-7.457437E0,1.9741001E0,-5.822103E0,-8.169222E-1,3.7192428E0,-4.267252E0,3.5582883E0],"categories":[],"categories_nodes":[],"categories_segments":[],"categories_sizes":[],"default_left":[0,0,0,0,0,0,0,0,0,0,0,0,0,0,0,0,0,0,0],"id":41,"left_children":[1,3,-1,5,7,9,-1,11,-1,-1,13,15,17,-1,-1,-1,-1,-1,-1],"loss_changes":[8.331014E4,2.4199117E4,0E0,4.091172E4,1.8597707E4,2.2828752E4,0E0,6.3220337E3,0E0,0E0,1.0038518E4,6.70618E3,1.2352457E4,0E0,0E0,0E0,0E0,0E0,0E0],"parents":[2147483647,0,0,1,1,3,3,4,4,5,5,7,7,10,10,11,11,12,12],"right_children":[2,4,-1,6,8,10,-1,12,-1,-1,14,16,18,-1,-1,-1,-1,-1,-1],"split_conditions":[1.0614525E0,9.787234E-1,-1.6136786E1,9.4148934E-1,1.0059701E0,1.2608E1,1.6850485E1,1.909018E1,-8.235847E0,9.613006E0,9.4678646E-1,1.129601E1,2.56538E1,1.9741001E0,-5.822103E0,-8.169222E-1,3.7192428E0,-4.267252E0,3.5582883E0],"split_indices":[5,6,0,6,5,8,0,8,0,0,5,8,8,0,0,0,0,0,0],"split_type":[0,0,0,0,0,0,0,0,0,0,0,0,0,0,0,0,0,0,0],"sum_hessian":[1.56E2,1.45E2,1.1E1,4.7E1,9.8E1,3.8E1,9E0,8.8E1,1E1,1.1E1,2.7E1,5.4E1,3.4E1,1.7E1,1E1,2.1E1,3.3E1,2.2E1,1.2E1],"tree_param":{"num_deleted":"0","num_feature":"10","num_nodes":"19","size_leaf_vector":"1"}},{"base_weights":[9.3158865E0,1.5885356E1,4.6225657E0,-1.6958652E1,1.2138182E1,1.0648388E1,-1.9628942E1,-1.8242565E0,6.470021E1,-8.986697E0,2.984587E1,2.8091166E0,-6.305456E0,2.4769123E1,-1.2362286E1,-3.9829545E0,5.301706E-1,6.991391E0,4.4757056E0,-3.4631082E-1,5.511844E0],"categories":[],"categories_nodes":[],"categories_segments":[],"categories_sizes":[],"default_left":[0,0,0,0,0,0,0,0,0,0,0,0,0,0,0,0,0,0,0,0,0],"id":42,"left_children":[1,-1,3,5,7,9,-1,11,13,15,17,19,-1,-1,-1,-1,-1,-1,-1,-1,-1],"loss_changes":[5.0322227E4,0E0,2.357707E4,8.490017E4,7.9037805E4,1.0941532E4,0E0,1.1833855E4,1.7369939E5,1.8884445E3,8.7856445E1,8.412335E3,0E0,0E0,0E0,0E0,0E0,0E0,0E0,0E0,0E0],"parents":[2147483647,0,0,2,2,3,3,4,4,5,5,7,7,8,8,9,9,10,10,11,11],"right_children":[2,-1,4,6,8,10,-1,12,14,16,18,20,-1,-1,-1,-1,-1,-1,-1,-1,-1],"split_conditions":[4E1,1.5885356E1,9.255319E-1,1E0,1.0223464E0,1.303349E1,-1.9628942E1,1E0,1.0192307E0,8.269231E-1,9.92E1,9.786096E-1,-6.305456E0,2.4769123E1,-1.2362286E1,-3.9829545E0,5.301706E-1,6.991391E0,4.4757056E0,-3.4631082E-1,5.511844E0],"split_indices":[1,0,6,5,5,8,0,5,6,6,1,5,0,0,0,0,0,0,0,0,0],"split_type":[0,0,0,0,0,0,0,0,0,0,0,0,0,0,0,0,0,0,0,0,0],"sum_hessian":[1.53E2,9E0,1.44E2,3.7E1,1.07E2,2.8E1,9E0,8.5E1,2.2E1,1.4E1,1.4E1,7.4E1,1.1E1,1.5E1,7E0,7E0,7E0,7E0,7E0,6.3E1,1.1E1],"tree_param":{"num_deleted":"0","num_feature":"10","num_nodes":"21","size_leaf_vector":"1"}},{"base_weights":[1.878106E-1,8.510246E0,-1.1228295E1,1.2648704E1,-5.267272E0,-3.460596E0,-1.2313445E1,9.22198E0,8.876869E0,-1.9626503E1,9.701543E0,7.583532E0,4.8035574E0,7.7203006E-1,-1.1802437E1,6.9029155E0,3.1367261E0,3.0519948E0,-1.8333968E0,1.7395388E0,8.757537E-1],"categories":[],"categories_nodes":[],"categories_segments":[],"categories_sizes":[],"default_left":[0,0,0,0,0,0,0,0,0,0,0,0,0,0,0,0,0,0,0,0,0],"id":43,"left_children":[1,3,5,7,-1,9,-1,11,-1,13,15,-1,17,-1,-1,19,-1,-1,-1,-1,-1],"loss_changes":[1.455583E4,1.2976985E4,2.5131906E4,8.4108545E3,0E0,1.2157474E4,0E0,9.095644E3,0E0,2.3817645E4,4.6407812E2,0E0,9.374735E3,0E0,0E0,7.9533325E1,0E0,0E0,0E0,0E0,0E0],"parents":[2147483647,0,0,1,1,2,2,3,3,5,5,7,7,9,9,10,10,12,12,15,15],"right_children":[2,4,6,8,-1,10,-1,12,-1,14,16,-1,18,-1,-1,20,-1,-1,-1,-1,-1],"split_conditions":[6E0,3.652764E1,1.356453E1,5.4E1,-5.267272E0,1.2219E1,-1.2313445E1,1.1283E1,8.876869E0,1.006E1,9E0,7.583532E0,9.3582886E-1,7.7203006E-1,-1.1802437E1,1.2608E1,3.1367261E0,3.0519948E0,-1.8333968E0,1.7395388E0,8.757537E-1],"split_indices":[7,8,8,0,0,8,0,8,0,8,7,0,5,0,0,8,0,0,0,0,0],"split_type":[0,0,0,0,0,0,0,0,0,0,0,0,0,0,0,0,0,0,0,0,0],"sum_hessian":[1.52E2,8.8E1,6.4E1,7.9E1,9E0,5.6E1,8E0,7.2E1,7E0,2.5E1,3.1E1,9E0,6.3E1,1.6E1,9E0,2.2E1,9E0,3.6E1,2.7E1,1.2E1,1E1],"tree_param":{"num_deleted":"0","num_feature":"10","num_nodes":"21","size_leaf_vector":"1"}},{"base_weights":[-3.5150555E-1,1.1390678E1,-2.959934E1,1.6917746E0,2.1107798E1,4.941915E0,-3.571037E1,-4.7871716E1,1.0407073E1,-1.7673438E0,6.3130717E0,3.372224E0,-2.3468536E1,-1.23561325E1,4.008515E1,7.1049232E0,-3.781927E0,3.921654E-1,-1.4724807E1,1.3954132E1,2.4228415E0,3.2336254E0,-1.5263103E-1],"categories":[],"categories_nodes":[],"categories_segments":[],"categories_sizes":[],"default_left":[0,0,0,0,0,0,0,0,0,0,0,0,0,0,0,0,0,0,0,0,0,0,0],"id":44,"left_children":[1,3,5,7,-1,9,-1,11,13,15,-1,-1,-1,17,19,21,-1,-1,-1,-1,-1,-1,-1],"loss_changes":[5.467084E4,1.03625055E5,2.3514173E5,4.505004E4,0E0,6.7497188E3,0E0,7.134115E4,6.0152523E4,4.734595E3,0E0,0E0,0E0,4.4471418E4,3.1543672E4,1.4763892E3,0E0,0E0,0E0,0E0,0E0,0E0,0E0],"parents":[2147483647,0,0,1,1,2,2,3,3,5,5,7,7,8,8,9,9,13,13,14,14,15,15],"right_children":[2,4,6,8,-1,10,-1,12,14,16,-1,-1,-1,18,20,22,-1,-1,-1,-1,-1,-1,-1],"split_conditions":[1.0786517E0,1.0481013E0,9.951923E-1,3E0,2.1107798E1,1.2758621E0,-3.571037E1,9.4678646E-1,9.6791446E-1,1.25E0,6.3130717E0,3.372224E0,-2.3468536E1,9.343284E-1,1.0059701E0,9.144385E-1,-3.781927E0,3.921654E-1,-1.4724807E1,1.3954132E1,2.4228415E0,3.2336254E0,-1.5263103E-1],"split_indices":[6,5,5,9,0,6,0,5,5,6,0,0,0,5,5,5,0,0,0,0,0,0,0],"split_type":[0,0,0,0,0,0,0,0,0,0,0,0,0,0,0,0,0,0,0,0,0,0,0],"sum_hessian":[1.58E2,1.13E2,4.5E1,1.03E2,1E1,3.7E1,8E0,1.5E1,8.8E1,3E1,7E0,8E0,7E0,5E1,3.8E1,2E1,1E1,4.1E1,9E0,1.8E1,2E1,9E0,1.1E1],"tree_param":{"num_deleted":"0","num_feature":"10","num_nodes":"23","size_leaf_vector":"1"}},{"base_weights":[-4.542476E0,-1.0116333E1,1.4659762E1,-4.3314022E-1,-3.557618E1,2.4193428E1,-3.613599E0,-8.619347E0,1.8736744E1,-4.001829E0,-1.4972951E1,8.461318E0,1.5926961E1,4.7372236E0,-1.3449264E1,3.856455E1,-3.0490925E0,1.70679E0,5.12948E0,-5.8694696E-1,1.9939457E0,-6.3439875E0,-1.4876157E0,1.1019946E1,3.4832237E0],"categories":[],"categories_nodes":[],"categories_segments":[],"categories_sizes":[],"default_left":[0,0,0,0,0,0,0,0,0,0,0,0,0,0,0,0,0,0,0,0,0,0,0,0,0],"id":45,"left_children":[1,3,5,7,9,11,-1,13,15,-1,-1,-1,17,19,21,23,-1,-1,-1,-1,-1,-1,-1,-1,-1],"loss_changes":[1.7385117E4,3.0955246E4,1.1682043E4,1.44715625E4,2.0262793E4,3.878041E3,0E0,4.2056455E3,1.8949434E4,0E0,0E0,0E0,1.3490596E3,7.240818E2,5.0862695E3,5.578826E3,0E0,0E0,0E0,0E0,0E0,0E0,0E0,0E0,0E0],"parents":[2147483647,0,0,1,1,2,2,3,3,4,4,5,5,7,7,8,8,12,12,13,13,14,14,15,15],"right_children":[2,4,6,8,10,12,-1,14,16,-1,-1,-1,18,20,22,24,-1,-1,-1,-1,-1,-1,-1,-1,-1],"split_conditions":[1.0119402E0,9.73262E-1,1.0670391E0,9.2743605E-1,1E0,1.0223464E0,-3.613599E0,8.6316514E-1,9.3582886E-1,-4.001829E0,-1.4972951E1,8.461318E0,1.0481013E0,8.5026735E-1,9.037433E-1,5.052E1,-3.0490925E0,1.70679E0,5.12948E0,-5.8694696E-1,1.9939457E0,-6.3439875E0,-1.4876157E0,1.1019946E1,3.4832237E0],"split_indices":[5,5,5,5,3,5,0,5,5,0,0,0,5,5,5,0,0,0,0,0,0,0,0,0,0],"split_type":[0,0,0,0,0,0,0,0,0,0,0,0,0,0,0,0,0,0,0,0,0,0,0,0,0],"sum_hessian":[1.61E2,1.25E2,3.6E1,9.1E1,3.4E1,2.8E1,8E0,6.4E1,2.7E1,2.5E1,9E0,8E0,2E1,1.7E1,4.7E1,1.7E1,1E1,1.2E1,8E0,7E0,1E1,1.1E1,3.6E1,9E0,8E0],"tree_param":{"num_deleted":"0","num_feature":"10","num_nodes":"25","size_leaf_vector":"1"}},{"base_weights":[2.5525134E0,-4.4114033E1,9.866946E0,-1.4999883E1,-2.721886E0,2.612698E1,-9.298443E0,1.3315598E1,1.2333934E1,-1.5838171E1,2.1885061E0,-4.4359336E0,1.9560764E1,-9.246132E0,-7.944322E0,3.5437493E0,-5.0008273E0,1.0989393E0,1.1674304E1,-3.2568952E-1,-5.479011E0,-2.1302307E0,1.9967864E-1],"categories":[],"categories_nodes":[],"categories_segments":[],"categories_sizes":[],"default_left":[0,0,0,0,0,0,0,0,0,0,0,0,0,0,0,0,0,0,0,0,0,0,0],"id":46,"left_children":[1,3,5,-1,-1,7,9,11,-1,13,15,-1,17,19,-1,-1,21,-1,-1,-1,-1,-1,-1],"loss_changes":[5.439757E4,1.9737938E4,4.302604E4,0E0,0E0,3.347648E4,4.798526E3,1.2585377E4,0E0,6.1717236E3,2.6881538E3,0E0,2.5793102E4,4.4802725E3,0E0,0E0,5.6907965E2,0E0,0E0,0E0,0E0,0E0,0E0],"parents":[2147483647,0,0,1,1,2,2,5,5,6,6,7,7,9,9,10,10,12,12,13,13,16,16],"right_children":[2,4,6,-1,-1,8,10,12,-1,14,16,-1,18,20,-1,-1,22,-1,-1,-1,-1,-1,-1],"split_conditions":[4.4E1,1.0119402E0,1.356453E1,-1.4999883E1,-2.721886E0,9E0,9.3048126E-1,9.037433E-1,1.2333934E1,4.36E1,9.364202E-1,-4.4359336E0,1.2412E1,9.0909094E-1,-7.944322E0,3.5437493E0,5.35E1,1.0989393E0,1.1674304E1,-3.2568952E-1,-5.479011E0,-2.1302307E0,1.9967864E-1],"split_indices":[1,5,8,0,0,7,5,5,0,0,5,0,8,5,0,0,0,0,0,0,0,0,0],"split_type":[0,0,0,0,0,0,0,0,0,0,0,0,0,0,0,0,0,0,0,0,0,0,0],"sum_hessian":[1.58E2,2.1E1,1.37E2,1E1,1.1E1,7.4E1,6.3E1,5.5E1,1.9E1,4E1,2.3E1,8E0,4.7E1,3.2E1,8E0,7E0,1.6E1,3.5E1,1.2E1,2.3E1,9E0,8E0,8E0],"tree_param":{"num_deleted":"0","num_feature":"10","num_nodes":"23","size_leaf_vector":"1"}},{"base_weights":[3.4080815E0,1.1730627E1,-1.8955626E1,-8.045766E0,2.4156464E1,-3.3044295E0,-1.516215E1,1.312166E1,-4.337124E1,1.4735265E1,1.5675262E1,1.6691297E0,-1.108723E1,7.0017366E0,-9.515902E-1,-1.1538109E1,-3.9951057E0,-1.0355982E1,3.504841E1,5.628273E-1,-5.1344934E0,-1.576521E0,9.4510996E-1,1.7728302E0,-1.2327016E1,2.8973622E0,1.3836516E1],"categories":[],"categories_nodes":[],"categories_segments":[],"categories_sizes":[],"default_left":[0,0,0,0,0,0,0,0,0,0,0,0,0,0,0,0,0,0,0,0,0,0,0,0,0,0,0],"id":47,"left_children":[1,3,5,7,9,11,-1,13,15,-1,17,-1,19,-1,21,-1,-1,23,25,-1,-1,-1,-1,-1,-1,-1,-1],"loss_changes":[3.0583137E4,2.9506906E4,3.953703E4,3.518658E4,3.0218172E4,3.283378E3,0E0,9.137426E3,5.204742E3,0E0,3.229171E4,0E0,4.422849E3,0E0,7.542289E2,0E0,0E0,2.753012E4,2.508648E4,0E0,0E0,0E0,0E0,0E0,0E0,0E0,0E0],"parents":[2147483647,0,0,1,1,2,2,3,3,4,4,5,5,7,7,8,8,10,10,12,12,14,14,17,17,18,18],"right_children":[2,4,6,8,10,12,-1,14,16,-1,18,-1,20,-1,22,-1,-1,24,26,-1,-1,-1,-1,-1,-1,-1,-1],"split_conditions":[1.1235955E0,9.4148934E-1,7E0,5.052E1,9.787234E-1,1.2115384E0,-1.516215E1,6E0,9.0425533E-1,1.4735265E1,4E0,1.6691297E0,4E0,7.0017366E0,4.36E1,-1.1538109E1,-3.9951057E0,4.36E1,1.011236E0,5.628273E-1,-5.1344934E0,-1.576521E0,9.4510996E-1,1.7728302E0,-1.2327016E1,2.8973622E0,1.3836516E1],"split_indices":[6,6,7,0,6,6,0,7,6,0,7,0,7,0,0,0,0,0,6,0,0,0,0,0,0,0,0],"split_type":[0,0,0,0,0,0,0,0,0,0,0,0,0,0,0,0,0,0,0,0,0,0,0,0,0,0,0],"sum_hessian":[1.63E2,1.19E2,4.4E1,4.6E1,7.3E1,3.5E1,9E0,2.9E1,1.7E1,1E1,6.3E1,1.4E1,2.1E1,1.1E1,1.8E1,1E1,7E0,2.7E1,3.6E1,1.1E1,1E1,8E0,1E1,2E1,7E0,2.3E1,1.3E1],"tree_param":{"num_deleted":"0","num_feature":"10","num_nodes":"27","size_leaf_vector":"1"}},{"base_weights":[-4.2742233E0,-5.279346E1,3.2514215E0,-2.1911543E1,8.131307E0,1.4511377E1,-2.1740839E1,2.1028278E1,5.6160617E0,-1.3675358E1,-1.0722275E1,-1.3392452E1,1.9401924E1,-8.702415E0,-4.081119E0,-1.0797232E1,7.982467E0,1.8975847E1,-1.4985403E0,1.253738E0,-3.3401659E0],"categories":[],"categories_nodes":[],"categories_segments":[],"categories_sizes":[],"default_left":[0,0,0,0,0,0,0,0,0,0,0,0,0,0,0,0,0,0,0,0,0],"id":48,"left_children":[1,3,5,-1,-1,7,9,-1,11,13,-1,15,17,-1,19,-1,-1,-1,-1,-1,-1],"loss_changes":[5.874424E4,1.1725231E5,3.947437E4,0E0,0E0,7.752294E4,1.0767537E4,0E0,2.3373426E4,1.0084331E4,0E0,8.2653164E4,1.05171125E5,0E0,3.667695E3,0E0,0E0,0E0,0E0,0E0,0E0],"parents":[2147483647,0,0,1,1,2,2,5,5,6,6,8,8,9,9,11,11,12,12,14,14],"right_children":[2,4,6,-1,-1,8,10,-1,12,14,-1,16,18,-1,20,-1,-1,-1,-1,-1,-1],"split_conditions":[5E0,4.36E1,1.909018E1,-2.1911543E1,8.131307E0,4.4E1,5.35E1,2.1028278E1,2.1E1,2.3584E1,-1.0722275E1,1E0,6E0,-8.702415E0,2.4342E1,-1.0797232E1,7.982467E0,1.8975847E1,-1.4985403E0,1.253738E0,-3.3401659E0],"split_indices":[9,0,8,0,0,1,0,0,9,8,0,3,7,0,8,0,0,0,0,0,0],"split_type":[0,0,0,0,0,0,0,0,0,0,0,0,0,0,0,0,0,0,0,0,0],"sum_hessian":[1.6E2,2.1E1,1.39E2,1.3E1,8E0,9.6E1,4.3E1,8E0,8.8E1,3.5E1,8E0,3.7E1,5.1E1,8E0,2.7E1,2.1E1,1.6E1,1.3E1,3.8E1,1.5E1,1.2E1],"tree_param":{"num_deleted":"0","num_feature":"10","num_nodes":"21","size_leaf_vector":"1"}},{"base_weights":[-8.345823E0,-1.7114746E1,2.236341E1,3.259748E1,-2.779261E1,1.1151143E1,7.17423E-1,1.3369868E1,9.8971283E-1,-1.8383966E1,-1.8378471E1,-3.2868145E0,2.7502131E0,-2.3811012E1,2.4462864E0,-9.187985E0,-2.1359646E0],"categories":[],"categories_nodes":[],"categories_segments":[],"categories_sizes":[],"default_left":[0,0,0,0,0,0,0,0,0,0,0,0,0,0,0,0,0],"id":49,"left_children":[1,3,5,7,9,-1,11,-1,-1,-1,13,-1,-1,15,-1,-1,-1],"loss_changes":[4.1861402E4,6.4560523E4,2.4985201E4,2.025729E4,5.9115164E4,0E0,4.9641953E3,0E0,0E0,0E0,1.4741709E4,0E0,0E0,2.1382812E4,0E0,0E0,0E0],"parents":[2147483647,0,0,1,1,2,2,3,3,4,4,6,6,10,10,13,13],"right_children":[2,4,6,8,10,-1,12,-1,-1,-1,14,-1,-1,16,-1,-1,-1],"split_conditions":[6E1,8.5393256E-1,1.2608E1,6E0,9.255319E-1,1.1151143E1,1.9065E1,1.3369868E1,9.8971283E-1,-1.8383966E1,7E0,-3.2868145E0,2.7502131E0,1.2608E1,2.4462864E0,-9.187985E0,-2.1359646E0],"split_indices":[9,6,8,7,6,0,8,0,0,0,7,0,0,8,0,0,0],"split_type":[0,0,0,0,0,0,0,0,0,0,0,0,0,0,0,0,0],"sum_hessian":[1.54E2,1.2E2,3.4E1,2.1E1,9.9E1,1.3E1,2.1E1,9E0,1.2E1,1.2E1,8.7E1,9E0,1.2E1,7.4E1,1.3E1,2.7E1,4.7E1],"tree_param":{"num_deleted":"0","num_feature":"10","num_nodes":"17","size_leaf_vector":"1"}},{"base_weights":[-3.6738966E-2,-4.2306637E1,7.4865766E0,-2.533357E1,5.0623903E0,2.7030024E1,-7.9254594E0,5.2333286E1,-3.8881844E1,-1.7096539E1,1.661319E1,1.96634E1,8.072265E1,2.5764008E0,-2.0239628E1,-1.0176491E1,-1.1817632E1,8.944125E0,-6.724708E-1,-1.2402068E1,2.0044823E1,3.4325634E1,6.666127E0,-5.160754E-1,-7.309034E0],"categories":[],"categories_nodes":[],"categories_segments":[],"categories_sizes":[],"default_left":[0,0,0,0,0,0,0,0,0,0,0,0,0,0,0,0,0,0,0,0,0,0,0,0,0],"id":50,"left_children":[1,3,5,-1,-1,7,9,11,13,15,17,19,21,-1,-1,23,-1,-1,-1,-1,-1,-1,-1,-1,-1],"loss_changes":[4.967236E4,1.3654723E5,4.006823E4,0E0,0E0,9.89531E4,1.695884E4,3.8558156E4,5.4329312E4,1.5505101E4,1.1656321E4,1.3927067E5,9.393295E4,0E0,0E0,9.477675E3,0E0,0E0,0E0,0E0,0E0,0E0,0E0,0E0,0E0],"parents":[2147483647,0,0,1,1,2,2,5,5,6,6,7,7,8,8,9,9,10,10,11,11,12,12,15,15],"right_children":[2,4,6,-1,-1,8,10,12,14,16,18,20,22,-1,-1,24,-1,-1,-1,-1,-1,-1,-1,-1,-1],"split_conditions":[5E0,1.2219E1,1.261396E1,-2.533357E1,5.0623903E0,1.1235955E0,9.786096E-1,2.8E1,9.0909094E-1,9.3582886E-1,1.0223464E0,1.003308E1,8.032423E0,2.5764008E0,-2.0239628E1,6E1,-1.1817632E1,8.944125E0,-6.724708E-1,-1.2402068E1,2.0044823E1,3.4325634E1,6.666127E0,-5.160754E-1,-7.309034E0],"split_indices":[9,8,8,0,0,6,5,9,5,5,5,8,8,0,0,9,0,0,0,0,0,0,0,0,0],"split_type":[0,0,0,0,0,0,0,0,0,0,0,0,0,0,0,0,0,0,0,0,0,0,0,0,0],"sum_hessian":[1.55E2,2.3E1,1.32E2,1E1,1.3E1,5.8E1,7.4E1,4.2E1,1.6E1,5.4E1,2E1,2E1,2.2E1,9E0,7E0,4.7E1,7E0,8E0,1.2E1,1E1,1E1,7E0,1.5E1,3.7E1,1E1],"tree_param":{"num_deleted":"0","num_feature":"10","num_nodes":"25","size_leaf_vector":"1"}},{"base_weights":[5.271241E0,-1.850575E1,1.015328E1,1.1332675E1,5.911739E0,8.020269E0,2.8001802E0,1.9696062E1,-8.823886E0,-1.9960737E0,9.35877E0,-3.3691492E-2,-3.2992322E0],"categories":[],"categories_nodes":[],"categories_segments":[],"categories_sizes":[],"default_left":[0,0,0,0,0,0,0,0,0,0,0,0,0],"id":51,"left_children":[1,-1,3,-1,5,-1,7,9,11,-1,-1,-1,-1],"loss_changes":[7.628938E4,0E0,2.9705824E4,0E0,1.47836875E4,0E0,2.5361166E4,4.2579324E4,5.0850967E3,0E0,0E0,0E0,0E0],"parents":[2147483647,0,0,2,2,4,4,6,6,7,7,8,8],"right_children":[2,-1,4,-1,6,-1,8,10,12,-1,-1,-1,-1],"split_conditions":[7.709289E0,-1.850575E1,2.85E1,1.1332675E1,1E0,8.020269E0,1.275351E1,2.1E1,2.1E1,-1.9960737E0,9.35877E0,-3.3691492E-2,-3.2992322E0],"split_indices":[8,0,0,0,9,0,8,9,9,0,0,0,0],"split_type":[0,0,0,0,0,0,0,0,0,0,0,0,0],"sum_hessian":[1.58E2,7E0,1.51E2,1.2E1,1.39E2,1.1E1,1.28E2,5.2E1,7.6E1,2.5E1,2.7E1,3.6E1,4E1],"tree_param":{"num_deleted":"0","num_feature":"10","num_nodes":"13","size_leaf_vector":"1"}},{"base_weights":[-6.2883863E0,9.378324E0,-1.5656175E1,-1.1165855E1,6.1761158E1,-2.1775408E0,-5.7864326E1,-9.095379E0,1.6413455E0,1.9082159E1,2.8760939E0,-1.6187374E1,3.501874E1,-1.9009672E1,4.60584E-1,1.0250744E1,-3.4687313E1,-3.969715E1,-6.680682E0,1.5464962E0,1.2064562E1,-1.2563187E1,-1.9805096E0,1.3469913E0,-1.5592122E1,-3.0834243E0,9.5309E-1],"categories":[],"categories_nodes":[],"categories_segments":[],"categories_sizes":[],"default_left":[0,0,0,0,0,0,0,0,0,0,0,0,0,0,0,0,0,0,0,0,0,0,0,0,0,0,0],"id":52,"left_children":[1,3,5,7,9,11,13,-1,15,-1,-1,17,19,-1,-1,-1,21,23,25,-1,-1,-1,-1,-1,-1,-1,-1],"loss_changes":[2.292433E4,6.347688E4,5.5449836E4,1.8764434E4,2.564286E4,3.92152E4,5.2930695E4,0E0,5.8021004E4,0E0,0E0,1.2043988E4,1.3943473E4,0E0,0E0,0E0,1.2593973E4,2.8030824E4,4.0040193E3,0E0,0E0,0E0,0E0,0E0,0E0,0E0,0E0],"parents":[2147483647,0,0,1,1,2,2,3,3,4,4,5,5,6,6,8,8,11,11,12,12,16,16,17,17,18,18],"right_children":[2,4,6,8,10,12,14,-1,16,-1,-1,18,20,-1,-1,-1,22,24,26,-1,-1,-1,-1,-1,-1,-1,-1],"split_conditions":[1E0,2.8E1,1.0192307E0,5E0,1.1235955E0,6E1,1.1612903E0,-9.095379E0,5.052E1,1.9082159E1,2.8760939E0,9.0425533E-1,4E0,-1.9009672E1,4.60584E-1,1.0250744E1,1.1235955E0,4E0,4E0,1.5464962E0,1.2064562E1,-1.2563187E1,-1.9805096E0,1.3469913E0,-1.5592122E1,-3.0834243E0,9.5309E-1],"split_indices":[3,9,6,9,6,9,6,0,0,0,0,6,7,0,0,0,6,7,7,0,0,0,0,0,0,0,0],"split_type":[0,0,0,0,0,0,0,0,0,0,0,0,0,0,0,0,0,0,0,0,0,0,0,0,0,0,0],"sum_hessian":[1.55E2,5.8E1,9.7E1,4.2E1,1.6E1,7.4E1,2.3E1,1.1E1,3.1E1,9E0,7E0,5.4E1,2E1,1.4E1,9E0,1.3E1,1.8E1,1.5E1,3.9E1,1E1,1E1,8E0,1E1,7E0,8E0,2.2E1,1.7E1],"tree_param":{"num_deleted":"0","num_feature":"10","num_nodes":"27","size_leaf_vector":"1"}},{"base_weights":[2.490394E-1,8.548694E0,-3.3072636E0,1.8294008E1,-9.942392E0,3.324163E1,-4.853348E0,-1.092731E1,-6.3147416E0,2.0191193E0,8.9467E0,8.120753E0,-1.2489454E1,2.9653687E0,-3.021859E0,-3.9456184E0,2.7902591E0],"categories":[],"categories_nodes":[],"categories_segments":[],"categories_sizes":[],"default_left":[0,0,0,0,0,0,0,0,0,0,0,0,0,0,0,0,0],"id":53,"left_children":[1,-1,3,5,7,9,-1,-1,11,-1,-1,13,15,-1,-1,-1,-1],"loss_changes":[2.4657428E4,0E0,2.169421E4,2.3132078E4,1.8535771E4,6.8043965E3,0E0,0E0,9.651785E3,0E0,0E0,5.2129336E3,1.4634602E4,0E0,0E0,0E0,0E0],"parents":[2147483647,0,0,2,2,3,3,4,4,5,5,8,8,11,11,12,12],"right_children":[2,-1,4,6,8,10,-1,-1,12,-1,-1,14,16,-1,-1,-1,-1],"split_conditions":[2.85E1,8.548694E0,1.008888E1,1.1153846E0,1.2412E1,1E0,-4.853348E0,-1.092731E1,1.4265E1,2.0191193E0,8.9467E0,9.283582E-1,2.756E1,2.9653687E0,-3.021859E0,-3.9456184E0,2.7902591E0],"split_indices":[0,0,8,6,8,3,0,0,8,0,0,5,8,0,0,0,0],"split_type":[0,0,0,0,0,0,0,0,0,0,0,0,0,0,0,0,0],"sum_hessian":[1.62E2,1.2E1,1.5E2,3.5E1,1.15E2,2.6E1,9E0,8E0,1.07E2,9E0,1.7E1,3.2E1,7.5E1,2.5E1,7E0,5.9E1,1.6E1],"tree_param":{"num_deleted":"0","num_feature":"10","num_nodes":"17","size_leaf_vector":"1"}},{"base_weights":[5.373151E0,-1.2418815E0,3.4897793E1,2.5373046E0,-1.1181899E1,1.7872305E1,1.2243773E1,3.4134483E1,-4.0652184E0,9.263114E0,-1.9683586E0,-2.4420016E0,2.4093971E1,-3.3574608E1,1.5545874E0,-2.3201584E1,6.756702E0,3.2694046E0,-3.3246644E0],"categories":[],"categories_nodes":[],"categories_segments":[],"categories_sizes":[],"default_left":[0,0,0,0,0,0,0,0,0,0,0,0,0,0,0,0,0,0,0],"id":54,"left_children":[1,3,5,7,-1,-1,9,11,13,-1,-1,-1,-1,15,17,-1,-1,-1,-1],"loss_changes":[3.1587525E4,2.7480154E4,3.5864668E4,2.6077447E4,0E0,0E0,1.6527387E4,8.730782E4,1.7212033E4,0E0,0E0,0E0,0E0,9.452387E4,2.3718297E4,0E0,0E0,0E0,0E0],"parents":[2147483647,0,0,1,1,2,2,3,3,6,6,7,7,8,8,13,13,14,14],"right_children":[2,4,6,8,-1,-1,10,12,14,-1,-1,-1,-1,16,18,-1,-1,-1,-1],"split_conditions":[6E1,1.0614525E0,9.787234E-1,1.0229E1,-1.1181899E1,1.7872305E1,4E0,2.1E1,3E0,9.263114E0,-1.9683586E0,-2.4420016E0,2.4093971E1,1.261396E1,2.1E1,-2.3201584E1,6.756702E0,3.2694046E0,-3.3246644E0],"split_indices":[9,5,6,8,0,0,7,9,9,0,0,0,0,8,9,0,0,0,0],"split_type":[0,0,0,0,0,0,0,0,0,0,0,0,0,0,0,0,0,0,0],"sum_hessian":[1.61E2,1.32E2,2.9E1,1.24E2,8E0,8E0,2.1E1,2.1E1,1.03E2,8E0,1.3E1,1.4E1,7E0,1.6E1,8.7E1,7E0,9E0,4.8E1,3.9E1],"tree_param":{"num_deleted":"0","num_feature":"10","num_nodes":"19","size_leaf_vector":"1"}},{"base_weights":[-3.186897E0,-1.652548E1,4.3540497E0,-1.901721E1,-4.03627E0,1.1464469E1,-7.0268047E-1,3.5570667E1,-3.0180668E1,-1.980734E1,8.484325E0,1.7266546E0,1.2618175E1,-5.3164898E1,4.20519E0,-2.1747522E-1,-1.5299537E1,-7.118023E0,1.6431551E1,-4.7751517E0,-2.0275963E1,-2.829886E0,3.9066105E0,-1.994653E0,5.424907E0],"categories":[],"categories_nodes":[],"categories_segments":[],"categories_sizes":[],"default_left":[0,0,0,0,0,0,0,0,0,0,0,0,0,0,0,0,0,0,0,0,0,0,0,0,0],"id":55,"left_children":[1,3,5,-1,7,-1,9,11,13,15,17,-1,-1,19,-1,21,-1,-1,23,-1,-1,-1,-1,-1,-1],"loss_changes":[1.5493111E4,5.432219E4,2.6433818E4,0E0,5.0969402E4,0E0,1.6002457E4,1.4203113E4,3.550827E4,3.2862477E4,2.1927479E4,0E0,0E0,2.763846E4,0E0,6.384523E3,0E0,0E0,1.5013727E4,0E0,0E0,0E0,0E0,0E0,0E0],"parents":[2147483647,0,0,1,1,2,2,4,4,6,6,7,7,8,8,9,9,10,10,13,13,15,15,18,18],"right_children":[2,4,6,-1,8,-1,10,12,14,16,18,-1,-1,20,-1,22,-1,-1,24,-1,-1,-1,-1,-1,-1],"split_conditions":[1.2412E1,3E0,1E0,-1.901721E1,1.4E1,1.1464469E1,1.4E1,1.006E1,6E1,1.0223464E0,8.6316514E-1,1.7266546E0,1.2618175E1,5.082E1,4.20519E0,9.3048126E-1,-1.5299537E1,-7.118023E0,1.328121E1,-4.7751517E0,-2.0275963E1,-2.829886E0,3.9066105E0,-1.994653E0,5.424907E0],"split_indices":[8,9,9,0,9,0,9,8,9,5,5,0,0,0,0,5,0,0,8,0,0,0,0,0,0],"split_type":[0,0,0,0,0,0,0,0,0,0,0,0,0,0,0,0,0,0,0,0,0,0,0,0,0],"sum_hessian":[1.53E2,5.5E1,9.8E1,7E0,4.8E1,8E0,9E1,1.9E1,2.9E1,2.9E1,6.1E1,1E1,9E0,2E1,9E0,2.2E1,7E0,9E0,5.2E1,1.3E1,7E0,1.3E1,9E0,1.5E1,3.7E1],"tree_param":{"num_deleted":"0","num_feature":"10","num_nodes":"25","size_leaf_vector":"1"}},{"base_weights":[6.1504054E0,8.5963955E0,-9.011452E0,-4.378066E0,1.5577119E1,1.1411359E1,-1.7501675E1,-1.9563936E0,2.5072319E1,3.721606E1,-5.44226E0,-1.045096E1,8.9075774E-1,-1.090819E1,1.3896789E1,4.5142662E1,1.4564849E1,1.0791003E1,3.9654057E0,5.4561768E0,-2.7791927E0,-1.6972517E0,4.8869004E0,1.0200847E1,7.1239777E0,1.0789092E1,1.2745043E0],"categories":[],"categories_nodes":[],"categories_segments":[],"categories_sizes":[],"default_left":[0,0,0,0,0,0,0,0,0,0,0,0,0,0,0,0,0,0,0,0,0,0,0,0,0,0,0],"id":56,"left_children":[1,3,-1,5,7,9,11,13,15,17,-1,-1,19,-1,21,23,25,-1,-1,-1,-1,-1,-1,-1,-1,-1,-1],"loss_changes":[2.0849113E4,1.4314928E4,0E0,1.1640942E4,1.711071E4,2.612176E4,1.9587281E4,3.0965715E4,1.3650676E4,3.8988984E3,0E0,0E0,8.26606E3,0E0,6.8701855E3,1.714375E2,1.4182542E4,0E0,0E0,0E0,0E0,0E0,0E0,0E0,0E0,0E0,0E0],"parents":[2147483647,0,0,1,1,3,3,4,4,5,5,6,6,7,7,8,8,9,9,12,12,14,14,15,15,16,16],"right_children":[2,4,-1,6,8,10,12,14,16,18,-1,-1,20,-1,22,24,26,-1,-1,-1,-1,-1,-1,-1,-1,-1,-1],"split_conditions":[3.652764E1,1.2412E1,-9.011452E0,1.4E1,1.4E1,1.0229E1,8.032423E0,8.274E1,8.274E1,8.032423E0,-5.44226E0,-1.045096E1,1E0,-1.090819E1,1.261396E1,6.5E1,1.2608E1,1.0791003E1,3.9654057E0,5.4561768E0,-2.7791927E0,-1.6972517E0,4.8869004E0,1.0200847E1,7.1239777E0,1.0789092E1,1.2745043E0],"split_indices":[8,8,0,9,9,8,8,1,1,8,0,0,3,0,8,1,8,0,0,0,0,0,0,0,0,0,0],"split_type":[0,0,0,0,0,0,0,0,0,0,0,0,0,0,0,0,0,0,0,0,0,0,0,0,0,0,0],"sum_hessian":[1.64E2,1.57E2,7E0,5.5E1,1.02E2,2.5E1,3E1,3.6E1,6.6E1,1.5E1,1E1,1E1,2E1,8E0,2.8E1,2.2E1,4.4E1,7E0,8E0,7E0,1.3E1,9E0,1.9E1,1.2E1,1E1,7E0,3.7E1],"tree_param":{"num_deleted":"0","num_feature":"10","num_nodes":"27","size_leaf_vector":"1"}},{"base_weights":[-4.1565657E0,1.9598385E-2,-1.1343928E1,-1.3168128E1,7.5714183E0,7.141774E0,-2.5384886E1,1.4505267E1,9.7211075E-1,-2.0244358E0,7.4942675E0,-1.375059E1,-1.0220968E1,5.799051E0,3.2752754E1,5.365393E0,-2.3671238E0,-4.2510376E0,4.35139E-1,-1.4558938E-1,4.16045E0,1.2115706E1,4.6824566E-1,-2.2755857E-1,2.8326886E0],"categories":[],"categories_nodes":[],"categories_segments":[],"categories_sizes":[],"default_left":[0,0,0,0,0,0,0,0,0,0,0,0,0,0,0,0,0,0,0,0,0,0,0,0,0],"id":57,"left_children":[1,3,-1,5,7,9,11,13,15,-1,-1,-1,17,19,21,23,-1,-1,-1,-1,-1,-1,-1,-1,-1],"loss_changes":[3.459576E4,1.4659911E4,0E0,1.340807E4,4.274545E3,1.1013902E4,2.1674725E4,7.1303535E3,2.7727249E3,0E0,0E0,0E0,3.529507E3,3.1035427E3,1.2269779E4,2.1037507E3,0E0,0E0,0E0,0E0,0E0,0E0,0E0,0E0,0E0],"parents":[2147483647,0,0,1,1,3,3,4,4,5,5,6,6,7,7,8,8,12,12,13,13,14,14,15,15],"right_children":[2,4,-1,6,8,10,12,14,16,-1,-1,-1,18,20,22,24,-1,-1,-1,-1,-1,-1,-1,-1,-1],"split_conditions":[1.0614525E0,1.2608E1,-1.1343928E1,1.008888E1,1.939E1,5.11E1,1.129601E1,9.6791446E-1,9.3582886E-1,-2.0244358E0,7.4942675E0,-1.375059E1,9.144385E-1,5.052E1,5.4E1,9.0909094E-1,-2.3671238E0,-4.2510376E0,4.35139E-1,-1.4558938E-1,4.16045E0,1.2115706E1,4.6824566E-1,-2.2755857E-1,2.8326886E0],"split_indices":[5,8,0,8,8,1,8,5,5,0,0,0,5,0,0,5,0,0,0,0,0,0,0,0,0],"split_type":[0,0,0,0,0,0,0,0,0,0,0,0,0,0,0,0,0,0,0,0,0,0,0,0,0],"sum_hessian":[1.57E2,1.46E2,1.1E1,5.3E1,9.3E1,2E1,3.3E1,4.5E1,4.8E1,1.3E1,7E0,8E0,2.5E1,3.1E1,1.4E1,3.6E1,1.2E1,1.3E1,1.2E1,2.2E1,9E0,7E0,7E0,2.1E1,1.5E1],"tree_param":{"num_deleted":"0","num_feature":"10","num_nodes":"25","size_leaf_vector":"1"}},{"base_weights":[5.890059E0,-5.291094E-1,2.9134825E1,-1.1044715E1,2.5191633E1,4.8031635E0,1.4587016E1,-1.0214844E1,-6.464029E0,-9.3041935E0,4.4390934E1,-2.577827E0,3.1558073E0,-5.5478797E0,-3.0196242E0,7.178513E1,-7.2129273E-1,1.2622606E0,-3.4386907E0,2.679581E1,-4.125251E0],"categories":[],"categories_nodes":[],"categories_segments":[],"categories_sizes":[],"default_left":[0,0,0,0,0,0,0,0,0,0,0,0,0,0,0,0,0,0,0,0,0],"id":58,"left_children":[1,3,5,7,9,11,-1,-1,13,-1,15,-1,-1,-1,17,19,-1,-1,-1,-1,-1],"loss_changes":[2.2480588E4,3.2244586E4,3.4532703E4,1.5314386E4,4.8877445E4,4.316496E3,0E0,0E0,5.5630645E3,0E0,3.644519E4,0E0,0E0,0E0,8.873289E3,1.0281277E5,0E0,0E0,0E0,0E0,0E0],"parents":[2147483647,0,0,1,1,2,2,3,3,4,4,5,5,8,8,10,10,14,14,15,15],"right_children":[2,4,6,8,10,12,-1,-1,14,-1,16,-1,-1,-1,18,20,-1,-1,-1,-1,-1],"split_conditions":[1E0,6E1,1.011236E0,1.006E1,8.988764E-1,1.1283E1,1.4587016E1,-1.0214844E1,1E0,-9.3041935E0,1.909018E1,-2.577827E0,3.1558073E0,-5.5478797E0,2.3212E1,1.0192307E0,-7.2129273E-1,1.2622606E0,-3.4386907E0,2.679581E1,-4.125251E0],"split_indices":[2,9,6,8,6,8,0,0,9,0,8,0,0,0,8,6,0,0,0,0,0],"split_type":[0,0,0,0,0,0,0,0,0,0,0,0,0,0,0,0,0,0,0,0,0],"sum_hessian":[1.5E2,1.18E2,3.2E1,8.4E1,3.4E1,2.1E1,1.1E1,8E0,7.6E1,7E0,2.7E1,8E0,1.3E1,1E1,6.6E1,1.7E1,1E1,4E1,2.6E1,1E1,7E0],"tree_param":{"num_deleted":"0","num_feature":"10","num_nodes":"21","size_leaf_vector":"1"}},{"base_weights":[-4.9863997E0,2.070616E1,-7.756679E0,9.698022E0,-2.4736536E0,-1.3170736E1,1.428944E1,-2.1168533E1,-1.0559478E0,6.116267E0,1.4068162E0,-8.99911E0,-3.7431286E1,8.550332E0,-8.819768E0,-2.0583572E0,3.2145867E0,-6.8831973E0,1.340043E0,-4.7569494E0,-1.5011336E1,-1.3040996E0,1.0896866E1],"categories":[],"categories_nodes":[],"categories_segments":[],"categories_sizes":[],"default_left":[0,0,0,0,0,0,0,0,0,0,0,0,0,0,0,0,0,0,0,0,0,0,0],"id":59,"left_children":[1,3,5,-1,-1,7,9,11,13,-1,15,17,19,21,-1,-1,-1,-1,-1,-1,-1,-1,-1],"loss_changes":[1.1384811E4,1.4695278E4,1.7252867E4,0E0,0E0,1.1187262E4,5.9768213E3,1.3572309E4,1.9494498E4,0E0,2.9473647E3,1.6338885E4,1.41271875E4,2.6934527E4,0E0,0E0,0E0,0E0,0E0,0E0,0E0,0E0,0E0],"parents":[2147483647,0,0,1,1,2,2,5,5,6,6,7,7,8,8,10,10,11,11,12,12,13,13],"right_children":[2,4,6,-1,-1,8,10,12,14,-1,16,18,20,22,-1,-1,-1,-1,-1,-1,-1,-1,-1],"split_conditions":[8.6316514E-1,2.1E1,6E1,9.698022E0,-2.4736536E0,5.052E1,9.144385E-1,2.1E1,5.4E1,6.116267E0,1.0291139E0,3E0,9.343284E-1,2.8E1,-8.819768E0,-2.0583572E0,3.2145867E0,-6.8831973E0,1.340043E0,-4.7569494E0,-1.5011336E1,-1.3040996E0,1.0896866E1],"split_indices":[5,9,9,0,0,0,5,9,0,0,5,9,5,9,0,0,0,0,0,0,0,0,0],"split_type":[0,0,0,0,0,0,0,0,0,0,0,0,0,0,0,0,0,0,0,0,0,0,0],"sum_hessian":[1.58E2,1.5E1,1.43E2,8E0,7E0,1.15E2,2.8E1,6.9E1,4.6E1,1.2E1,1.6E1,4E1,2.9E1,3.8E1,8E0,9E0,7E0,1.5E1,2.5E1,2.2E1,7E0,2.9E1,9E0],"tree_param":{"num_deleted":"0","num_feature":"10","num_nodes":"23","size_leaf_vector":"1"}},{"base_weights":[-5.720351E-1,-2.4434566E1,8.277876E0,-1.4953044E1,-1.3633307E1,1.846987E1,-9.925912E0,1.6806498E0,-3.2967167E1,9.474715E0,1.1132598E1,-1.4538246E1,5.8468423E0,-4.5434318E0,3.2633514E0,-1.3927352E1,2.0532722E0,1.5421259E1,-4.001783E0,1.6166449E1,-1.6373503E0,-2.0351168E-2,1.0952918E1,4.8019843E0,1.4093355E0,-2.019219E0,1.089536E0],"categories":[],"categories_nodes":[],"categories_segments":[],"categories_sizes":[],"default_left":[0,0,0,0,0,0,0,0,0,0,0,0,0,0,0,0,0,0,0,0,0,0,0,0,0,0,0],"id":60,"left_children":[1,3,5,7,-1,9,11,13,15,17,-1,-1,19,-1,-1,-1,-1,21,-1,23,25,-1,-1,-1,-1,-1,-1],"loss_changes":[3.4037074E4,1.7466973E4,2.1928666E4,1.1000117E4,0E0,2.4976133E4,4.242824E4,7.221345E3,2.8331213E4,1.0985199E4,0E0,0E0,2.6881753E3,0E0,0E0,0E0,0E0,3.1516863E4,0E0,9.428345E2,1.2675674E3,0E0,0E0,0E0,0E0,0E0,0E0],"parents":[2147483647,0,0,1,1,2,2,3,3,5,5,6,6,7,7,8,8,9,9,12,12,17,17,19,19,20,20],"right_children":[2,4,6,8,-1,10,12,14,16,18,-1,-1,20,-1,-1,-1,-1,22,-1,24,26,-1,-1,-1,-1,-1,-1],"split_conditions":[9.255319E-1,9E1,1.1235955E0,8.3870965E-1,-1.3633307E1,1.0291139E0,1.1612903E0,9.144385E-1,1.4E1,6E1,1.1132598E1,-1.4538246E1,1.25E0,-4.5434318E0,3.2633514E0,-1.3927352E1,2.0532722E0,2.8E1,-4.001783E0,1.4E1,2.1E1,-2.0351168E-2,1.0952918E1,4.8019843E0,1.4093355E0,-2.019219E0,1.089536E0],"split_indices":[6,9,6,6,0,5,6,5,9,9,0,0,6,0,0,0,0,9,0,9,9,0,0,0,0,0,0],"split_type":[0,0,0,0,0,0,0,0,0,0,0,0,0,0,0,0,0,0,0,0,0,0,0,0,0,0,0],"sum_hessian":[1.6E2,4.3E1,1.17E2,3.6E1,7E0,7.5E1,4.2E1,1.9E1,1.7E1,6.1E1,1.4E1,8E0,3.4E1,7E0,1.2E1,9E0,8E0,5.1E1,1E1,1.4E1,2E1,3.7E1,1.4E1,7E0,7E0,9E0,1.1E1],"tree_param":{"num_deleted":"0","num_feature":"10","num_nodes":"27","size_leaf_vector":"1"}},{"base_weights":[-5.5881724E0,-6.139967E-1,-2.8533026E1,9.104846E0,-5.4313536E0,-5.3992874E1,1.2736062E0,2.6114536E1,-1.51392765E1,-1.3098659E1,-8.302765E0,7.469475E0,9.269881E0,-1.0400244E1,-1.0298839E1,-6.8579745E0,8.770391E0,1.4325732E0,-4.6457233E0],"categories":[],"categories_nodes":[],"categories_segments":[],"categories_sizes":[],"default_left":[0,0,0,0,0,0,0,0,0,0,0,0,0,0,0,0,0,0,0],"id":61,"left_children":[1,3,5,-1,7,9,-1,11,13,-1,-1,15,-1,-1,17,-1,-1,-1,-1],"loss_changes":[1.8319043E4,2.9620602E4,2.5619562E4,0E0,3.7170367E4,7.510117E2,0E0,1.0582494E4,1.6201092E4,0E0,0E0,2.4603422E4,0E0,0E0,1.8748926E4,0E0,0E0,0E0,0E0],"parents":[2147483647,0,0,1,1,2,2,4,4,5,5,7,7,8,8,11,11,14,14],"right_children":[2,4,6,-1,8,10,-1,12,14,-1,-1,16,-1,-1,18,-1,-1,-1,-1],"split_conditions":[9E1,8.6316514E-1,1.9065E1,9.104846E0,1.008888E1,9.0909094E-1,1.2736062E0,2.8E1,1.137687E1,-1.3098659E1,-8.302765E0,5.11E1,9.269881E0,-1.0400244E1,1.4265E1,-6.8579745E0,8.770391E0,1.4325732E0,-4.6457233E0],"split_indices":[9,5,8,0,8,5,0,9,8,0,0,1,0,0,8,0,0,0,0],"split_type":[0,0,0,0,0,0,0,0,0,0,0,0,0,0,0,0,0,0,0],"sum_hessian":[1.6E2,1.32E2,2.8E1,1.2E1,1.2E2,1.6E1,1.2E1,2.8E1,9.2E1,7E0,9E0,1.5E1,1.3E1,1E1,8.2E1,7E0,8E0,3.5E1,4.7E1],"tree_param":{"num_deleted":"0","num_feature":"10","num_nodes":"19","size_leaf_vector":"1"}},{"base_weights":[4.925052E0,9.716704E0,-3.1969822E1,3.5916946E0,3.1163574E1,-4.4236546E0,-8.896494E0,2.0414478E1,-4.9162374E0,5.837546E-1,1.0162082E1,5.330251E1,-1.8775414E1,-1.0255817E1,3.3978966E-1,5.9690104E0,1.4748569E1,4.569428E0,-1.506913E1,8.013161E0,-1.0791817E0],"categories":[],"categories_nodes":[],"categories_segments":[],"categories_sizes":[],"default_left":[0,0,0,0,0,0,0,0,0,0,0,0,0,0,0,0,0,0,0,0,0],"id":62,"left_children":[1,3,5,7,9,-1,-1,11,13,-1,-1,15,17,-1,19,-1,-1,-1,-1,-1,-1],"loss_changes":[2.8578443E4,1.8665104E4,1.7024766E3,1.6033203E4,1.744652E4,0E0,0E0,4.9062293E4,1.8189309E4,0E0,0E0,8.556734E3,4.247378E4,0E0,1.5532809E4,0E0,0E0,0E0,0E0,0E0,0E0],"parents":[2147483647,0,0,1,1,2,2,3,3,4,4,7,7,8,8,11,11,12,12,14,14],"right_children":[2,4,6,8,10,-1,-1,12,14,-1,-1,16,18,-1,20,-1,-1,-1,-1,-1,-1],"split_conditions":[2.4342E1,6E1,5.35E1,1.137687E1,9.0909094E-1,-4.4236546E0,-8.896494E0,1.4E1,1.2412E1,5.837546E-1,1.0162082E1,1.006E1,1.0059701E0,-1.0255817E1,1E0,5.9690104E0,1.4748569E1,4.569428E0,-1.506913E1,8.013161E0,-1.0791817E0],"split_indices":[8,9,0,8,5,0,0,9,8,0,0,8,5,0,9,0,0,0,0,0,0],"split_type":[0,0,0,0,0,0,0,0,0,0,0,0,0,0,0,0,0,0,0,0,0],"sum_hessian":[1.6E2,1.42E2,1.8E1,1.11E2,3.1E1,1.1E1,7E0,3.7E1,7.4E1,1.3E1,1.8E1,2E1,1.7E1,7E0,6.7E1,1E1,1E1,1E1,7E0,8E0,5.9E1],"tree_param":{"num_deleted":"0","num_feature":"10","num_nodes":"21","size_leaf_vector":"1"}},{"base_weights":[-3.430599E0,-4.066825E1,9.4936854E-1,-4.399524E0,-1.1300313E1,-9.8883295E0,1.1331382E1,-9.44263E0,-1.6205213E0,4.6206463E1,9.8288006E-1,3.667657E0,-3.4692037E0,2.6836307E0,1.3855194E1,7.1915774E0,-7.927203E0,-1.2136254E0,1.0052718E1,-4.075356E0,2.9117131E0],"categories":[],"categories_nodes":[],"categories_segments":[],"categories_sizes":[],"default_left":[0,0,0,0,0,0,0,0,0,0,0,0,0,0,0,0,0,0,0,0,0],"id":63,"left_children":[1,3,5,-1,-1,7,9,-1,11,13,15,17,-1,-1,-1,-1,19,-1,-1,-1,-1],"loss_changes":[2.572768E4,4.1615156E3,1.5999653E4,0E0,0E0,2.1432268E4,2.6174441E4,0E0,4.828143E3,1.1998672E4,1.7809299E4,1.9962055E4,0E0,0E0,0E0,0E0,1.294318E4,0E0,0E0,0E0,0E0],"parents":[2147483647,0,0,1,1,2,2,5,5,6,6,8,8,9,9,10,10,11,11,16,16],"right_children":[2,4,6,-1,-1,8,10,-1,12,14,16,18,-1,-1,-1,-1,20,-1,-1,-1,-1],"split_conditions":[8.269231E-1,2.1E1,2.8E1,-4.399524E0,-1.1300313E1,9.4148934E-1,9.787234E-1,-9.44263E0,1.2413793E0,4E0,1E0,1.1235955E0,-3.4692037E0,2.6836307E0,1.3855194E1,7.1915774E0,1.1458334E0,-1.2136254E0,1.0052718E1,-4.075356E0,2.9117131E0],"split_indices":[6,9,9,0,0,6,6,0,6,7,3,6,0,0,0,0,6,0,0,0,0],"split_type":[0,0,0,0,0,0,0,0,0,0,0,0,0,0,0,0,0,0,0,0,0],"sum_hessian":[1.57E2,1.6E1,1.41E2,8E0,8E0,6.9E1,7.2E1,1.2E1,5.7E1,1.6E1,5.6E1,4.3E1,1.4E1,7E0,9E0,1.1E1,4.5E1,3.6E1,7E0,2.9E1,1.6E1],"tree_param":{"num_deleted":"0","num_feature":"10","num_nodes":"21","size_leaf_vector":"1"}},{"base_weights":[-4.9097314E0,-1.915618E0,-2.5056934E1,-5.3295746E0,1.9149307E1,-5.2201396E-1,-1.2649366E1,-9.139366E0,3.2261791E0,8.204756E0,-1.2401174E0,2.170984E0,-1.954571E1,-1.4709112E1,1.552064E1,-2.0487888E0,1.3984575E0,-2.0110118E0,-7.596757E0,2.4989421E0,-8.866228E0,-2.9066978E0,7.2101173E0],"categories":[],"categories_nodes":[],"categories_segments":[],"categories_sizes":[],"default_left":[0,0,0,0,0,0,0,0,0,0,0,0,0,0,0,0,0,0,0,0,0,0,0],"id":64,"left_children":[1,3,5,7,9,-1,-1,11,13,-1,-1,15,17,19,21,-1,-1,-1,-1,-1,-1,-1,-1],"loss_changes":[9.598753E3,1.0100531E4,1.756017E4,3.948726E3,1.1021127E4,0E0,0E0,9.865131E3,8.427955E3,0E0,0E0,2.4731365E3,7.400375E3,1.2903328E4,1.4258781E4,0E0,0E0,0E0,0E0,0E0,0E0,0E0,0E0],"parents":[2147483647,0,0,1,1,2,2,3,3,4,4,7,7,8,8,11,11,12,12,13,13,14,14],"right_children":[2,4,6,8,10,-1,-1,12,14,-1,-1,16,18,20,22,-1,-1,-1,-1,-1,-1,-1,-1],"split_conditions":[5.4E1,6E1,9E1,5.082E1,4E0,-5.2201396E-1,-1.2649366E1,1.4E1,1.4E1,8.204756E0,-1.2401174E0,3E0,4.36E1,4E0,4E0,-2.0487888E0,1.3984575E0,-2.0110118E0,-7.596757E0,2.4989421E0,-8.866228E0,-2.9066978E0,7.2101173E0],"split_indices":[0,9,9,0,7,0,0,9,9,0,0,9,0,7,7,0,0,0,0,0,0,0,0],"split_type":[0,0,0,0,0,0,0,0,0,0,0,0,0,0,0,0,0,0,0,0,0,0,0],"sum_hessian":[1.59E2,1.39E2,2E1,1.2E2,1.9E1,1.3E1,7E0,8.3E1,3.7E1,1E1,9E0,4E1,4.3E1,1.5E1,2.2E1,1.1E1,2.9E1,2.9E1,1.4E1,8E0,7E0,9E0,1.3E1],"tree_param":{"num_deleted":"0","num_feature":"10","num_nodes":"23","size_leaf_vector":"1"}},{"base_weights":[-6.3048167E0,-5.5175663E1,-2.9420486E-1,-3.0539043E0,-2.024549E1,-1.8942448E1,4.023802E0,-3.0636637E0,-1.1261645E1,2.1589005E1,-4.8396143E-1,3.6309814E-1,-1.5502679E0,-1.9748358E0,7.846978E0,1.9223703E1,-8.853506E0,2.0835273E0,8.083285E0,3.9600956E-1,-9.594705E0],"categories":[],"categories_nodes":[],"categories_segments":[],"categories_sizes":[],"default_left":[0,0,0,0,0,0,0,0,0,0,0,0,0,0,0,0,0,0,0,0,0],"id":65,"left_children":[1,3,5,-1,-1,7,9,11,-1,13,15,-1,-1,-1,-1,17,19,-1,-1,-1,-1],"loss_changes":[4.45218E4,2.9579223E4,1.0964684E4,0E0,0E0,1.5085567E4,8.763552E3,4.3386072E2,0E0,1.277987E4,1.4716174E4,0E0,0E0,0E0,0E0,4.711588E3,2.6587424E4,0E0,0E0,0E0,0E0],"parents":[2147483647,0,0,1,1,2,2,5,5,6,6,7,7,9,9,10,10,15,15,16,16],"right_children":[2,4,6,-1,-1,8,10,12,-1,14,16,-1,-1,-1,-1,18,20,-1,-1,-1,-1],"split_conditions":[8.032423E0,1.0192307E0,8.680556E-1,-3.0539043E0,-2.024549E1,1E0,9.787234E-1,9.4678646E-1,-1.1261645E1,1.520373E1,1.2219E1,3.6309814E-1,-1.5502679E0,-1.9748358E0,7.846978E0,1.129601E1,9.3582886E-1,2.0835273E0,8.083285E0,3.9600956E-1,-9.594705E0],"split_indices":[8,6,6,0,0,3,6,5,0,8,8,0,0,0,0,8,5,0,0,0,0],"split_type":[0,0,0,0,0,0,0,0,0,0,0,0,0,0,0,0,0,0,0,0,0],"sum_hessian":[1.51E2,1.6E1,1.35E2,9E0,7E0,2.5E1,1.1E2,1.8E1,7E0,2.2E1,8.8E1,9E0,9E0,8E0,1.4E1,2.6E1,6.2E1,1.9E1,7E0,4.9E1,1.3E1],"tree_param":{"num_deleted":"0","num_feature":"10","num_nodes":"21","size_leaf_vector":"1"}},{"base_weights":[1.4368525E0,3.223203E1,-2.862206E0,-3.395747E0,1.4995163E1,1.1827926E1,-1.0314481E1,4.255297E-1,9.438533E0,-1.7390278E1,-1.2189132E0,-4.6006203E0,8.565368E0,-4.525581E0,-2.7294762E1,-1.929911E1,1.3061723E1,3.4147065E0,-8.1062907E-1,-2.5090199E0,2.0674381E0,-7.1774163E0,-4.2111263E0,2.166019E0,-7.6081405E0,5.3397536E0,7.1162313E-1],"categories":[],"categories_nodes":[],"categories_segments":[],"categories_sizes":[],"default_left":[0,0,0,0,0,0,0,0,0,0,0,0,0,